{"learner":{"attributes":{"scikit_learn":"{\"_estimator_type\": \"classifier\"}"},"feature_names":["latitude","longitude","seconds","minutes","hour","day_of_week"],"feature_types":["float","float","int","int","int","int"],"gradient_booster":{"model":{"gbtree_model_param":{"num_parallel_tree":"1","num_trees":"100"},"iteration_indptr":[0,1,2,3,4,5,6,7,8,9,10,11,12,13,14,15,16,17,18,19,20,21,22,23,24,25,26,27,28,29,30,31,32,33,34,35,36,37,38,39,40,41,42,43,44,45,46,47,48,49,50,51,52,53,54,55,56,57,58,59,60,61,62,63,64,65,66,67,68,69,70,71,72,73,74,75,76,77,78,79,80,81,82,83,84,85,86,87,88,89,90,91,92,93,94,95,96,97,98,99,100],"tree_info":[0,0,0,0,0,0,0,0,0,0,0,0,0,0,0,0,0,0,0,0,0,0,0,0,0,0,0,0,0,0,0,0,0,0,0,0,0,0,0,0,0,0,0,0,0,0,0,0,0,0,0,0,0,0,0,0,0,0,0,0,0,0,0,0,0,0,0,0,0,0,0,0,0,0,0,0,0,0,0,0,0,0,0,0,0,0,0,0,0,0,0,0,0,0,0,0,0,0,0,0],"trees":[{"base_weights":[-8.847719E-3,-3.8194373E-1,1.039632E0,-4.6034157E-1,8.034576E-1,1.1835824E0,-1.9109191E-1,-5.36408E-1,7.100097E-1,3.9704332E-1,-1.2682982E-1,1.3404269E0,-6.404203E-2,-7.8061426E-1,-2.7197987E-1,-1.2682982E-1,3.7012205E-1,6.7168653E-1,1.4809494E0,2.097792E-1,-2.6422814E-1,-3.3111283E-1,-9.310969E-1,-4.0267047E-1,4.0247348E-1,3.679235E-1,-1.6210327E-1,1.6791874E0,6.890425E-1,-1.8571514E-1,2.8536513E-1,-1.4564407E-1,-3.9780453E-1,-4.1675106E-2,-2.90684E-1,2.943386E-1,-1.9109191E-1,8.581838E-2,5.4917806E-1,-1.6210327E-1,3.9704332E-1],"categories":[],"categories_nodes":[],"categories_segments":[],"categories_sizes":[],"default_left":[0,0,0,0,0,0,0,0,0,0,0,0,0,0,0,0,0,0,0,0,0,0,0,0,0,0,0,0,0,0,0,0,0,0,0,0,0,0,0,0,0],"id":0,"left_children":[1,3,5,7,9,11,-1,13,15,-1,-1,17,19,21,23,-1,-1,25,27,-1,-1,29,31,33,35,-1,-1,37,39,-1,-1,-1,-1,-1,-1,-1,-1,-1,-1,-1,-1],"loss_changes":[3.7823425E1,6.9956017E0,6.879019E0,6.3908033E0,3.6119947E0,4.7278137E0,0E0,3.917818E0,3.2211351E0,0E0,0E0,9.898224E-1,2.8623605E0,1.9046822E0,3.0040812E0,0E0,0E0,4.358588E0,1.4522858E0,0E0,0E0,4.191587E0,3.5725327E0,3.9740505E0,4.073684E0,0E0,0E0,2.1335258E0,4.6334276E0,0E0,0E0,0E0,0E0,0E0,0E0,0E0,0E0,0E0,0E0,0E0,0E0],"parents":[2147483647,0,0,1,1,2,2,3,3,4,4,5,5,7,7,8,8,11,11,12,12,13,13,14,14,17,17,18,18,21,21,22,22,23,23,24,24,27,27,28,28],"right_children":[2,4,6,8,10,12,-1,14,16,-1,-1,18,20,22,24,-1,-1,26,28,-1,-1,30,32,34,36,-1,-1,38,40,-1,-1,-1,-1,-1,-1,-1,-1,-1,-1,-1,-1],"split_conditions":[5E0,8.099301E1,7.972375E1,5.7E1,8.7135025E1,5.1E1,-1.9109191E-1,1.1E1,7.90204E-1,3.9704332E-1,-1.2682982E-1,1.4E1,-4.8123802E1,-6.0715076E1,1.1366951E2,-1.2682982E-1,3.7012205E-1,2.0753645E1,1.7E1,2.097792E-1,-2.6422814E-1,-6.836957E1,-1.1128978E1,2E1,4.2E1,3.679235E-1,-1.6210327E-1,-7.61451E1,1.9E1,-1.8571514E-1,2.8536513E-1,-1.4564407E-1,-3.9780453E-1,-4.1675106E-2,-2.90684E-1,2.943386E-1,-1.9109191E-1,8.581838E-2,5.4917806E-1,-1.6210327E-1,3.9704332E-1],"split_indices":[5,0,0,3,0,3,0,4,1,0,0,3,0,1,1,0,0,0,4,0,0,1,0,4,2,0,0,0,4,0,0,0,0,0,0,0,0,0,0,0,0],"split_type":[0,0,0,0,0,0,0,0,0,0,0,0,0,0,0,0,0,0,0,0,0,0,0,0,0,0,0,0,0,0,0,0,0,0,0,0,0,0,0,0,0],"sum_hessian":[9.467464E1,7.029591E1,2.437872E1,6.6508934E1,3.7869854E0,2.2721912E1,1.6568061E0,6.2958633E1,3.5502987E0,2.6035523E0,1.1834329E0,2.011836E1,2.6035523E0,3.1716003E1,3.124263E1,1.1834329E0,2.3668659E0,4.497045E0,1.5621315E1,1.4201195E0,1.1834329E0,8.757403E0,2.29586E1,2.6508898E1,4.7337317E0,3.0769258E0,1.4201195E0,1.1597643E1,4.023672E0,7.573971E0,1.1834329E0,1.183433E1,1.11242695E1,1.8934927E1,7.573971E0,3.0769258E0,1.6568061E0,1.4201195E0,1.0177524E1,1.4201195E0,2.6035523E0],"tree_param":{"num_deleted":"0","num_feature":"6","num_nodes":"41","size_leaf_vector":"1"}},{"base_weights":[-8.142243E-3,-2.8750816E-1,7.2879344E-1,-6.4734524E-1,-1.15457915E-1,8.3220273E-1,-1.6137381E-1,-9.8506397E-1,-2.1044189E-1,-2.0243174E-1,7.3399836E-1,9.405975E-1,-6.531178E-2,-1.0861329E0,-5.8686133E-2,1.1385669E-1,-2.535511E-1,-2.6557857E-1,2.0909499E-1,3.5882458E-1,-1.0844134E-1,6.615592E-2,9.8007494E-1,-2.4488385E-1,1.8370914E-1,-4.627733E-1,-3.6026055E-1,3.85743E-1,-2.4602328E-1,4.6469128E-1,-3.1862015E-1,7.411109E-1,1.2518849E0,-2.4315777E-1,3.038833E-2,2.4861464E-1,-1.3181952E-1,-8.969581E-2,2.9794067E-1,-1.4678049E-1,-2.407963E-2,2.6689428E-1,-8.442899E-2,4.051539E-1,1.1206482E-1],"categories":[],"categories_nodes":[],"categories_segments":[],"categories_sizes":[],"default_left":[0,0,0,0,0,0,0,0,0,0,0,0,0,0,0,0,0,0,0,0,0,0,0,0,0,0,0,0,0,0,0,0,0,0,0,0,0,0,0,0,0,0,0,0,0],"id":1,"left_children":[1,3,5,7,9,11,-1,13,15,17,19,21,23,25,-1,27,-1,29,-1,-1,-1,-1,31,-1,-1,33,-1,35,-1,37,39,41,43,-1,-1,-1,-1,-1,-1,-1,-1,-1,-1,-1,-1],"loss_changes":[1.9491789E1,4.174238E0,3.8571243E0,3.0363379E0,3.6688592E0,2.4407272E0,0E0,7.5514984E-1,2.3308225E0,2.6844683E0,2.781946E0,4.0603256E-1,2.3169227E0,1.9748116E-1,0E0,2.3645434E0,0E0,1.768863E0,0E0,0E0,0E0,0E0,4.0104485E-1,0E0,0E0,7.2236514E-1,0E0,2.8962607E0,0E0,1.6045475E0,1.5715938E0,2.2762055E0,1.9897842E-1,0E0,0E0,0E0,0E0,0E0,0E0,0E0,0E0,0E0,0E0,0E0,0E0],"parents":[2147483647,0,0,1,1,2,2,3,3,4,4,5,5,7,7,8,8,9,9,10,10,11,11,12,12,13,13,15,15,17,17,22,22,25,25,27,27,29,29,30,30,31,31,32,32],"right_children":[2,4,6,8,10,12,-1,14,16,18,20,22,24,26,-1,28,-1,30,-1,-1,-1,-1,32,-1,-1,34,-1,36,-1,38,40,42,44,-1,-1,-1,-1,-1,-1,-1,-1,-1,-1,-1,-1],"split_conditions":[5E0,7E0,7.972375E1,5.3867844E1,8.099301E1,5.1E1,-1.6137381E-1,5.2E1,2.555487E1,5.7E1,8.7135025E1,4E0,5.6E1,1.5E1,-5.8686133E-2,1.4958493E2,-2.535511E-1,3E0,2.0909499E-1,3.5882458E-1,-1.0844134E-1,6.615592E-2,3.6E1,-2.4488385E-1,1.8370914E-1,-5.2696384E1,-3.6026055E-1,4E0,-2.4602328E-1,1.5E1,3E0,3.4E1,5.6E1,-2.4315777E-1,3.038833E-2,2.4861464E-1,-1.3181952E-1,-8.969581E-2,2.9794067E-1,-1.4678049E-1,-2.407963E-2,2.6689428E-1,-8.442899E-2,4.051539E-1,1.1206482E-1],"split_indices":[5,4,0,1,0,3,0,3,0,3,0,3,3,3,0,1,0,2,0,0,0,0,2,0,0,0,0,4,0,3,5,2,2,0,0,0,0,0,0,0,0,0,0,0,0],"split_type":[0,0,0,0,0,0,0,0,0,0,0,0,0,0,0,0,0,0,0,0,0,0,0,0,0,0,0,0,0,0,0,0,0,0,0,0,0,0,0,0,0,0,0,0,0],"sum_hessian":[9.266014E1,6.763149E1,2.502865E1,2.098324E1,4.664825E1,2.3456745E1,1.5719056E0,1.1127345E1,9.855895E0,4.30066E1,3.6416519E0,2.0886263E1,2.5704815E0,9.531277E0,1.5960677E0,7.066212E0,2.7896826E0,4.084373E1,2.162868E0,2.4966764E0,1.1449755E0,1.4278537E0,1.945841E1,1.1222876E0,1.4481938E0,2.2640512E0,7.2672257E0,5.927556E0,1.1386563E0,2.2401898E0,3.8603542E1,1.2337963E1,7.1204467E0,1.1302885E0,1.1337627E0,3.8541472E0,2.0734086E0,1.0937622E0,1.1464278E0,2.1883524E1,1.6720018E1,1.0886526E1,1.4514375E0,5.9183E0,1.2021465E0],"tree_param":{"num_deleted":"0","num_feature":"6","num_nodes":"45","size_leaf_vector":"1"}},{"base_weights":[-9.457939E-3,-1.4937161E-1,8.469773E-1,-3.0796102E-1,1.6400746E-1,2.0311624E-1,1.1231886E0,-3.2652673E-1,-1.9411843E-1,-1.8437281E-1,5.468807E-1,7.921157E-1,-1.8551919E-1,6.914127E-2,3.908614E-1,2.9813642E-2,-5.9415454E-1,-6.1040276E-1,1.845104E-1,8.1155074E-1,-4.551141E-1,3.1032792E-1,5.314613E-2,-7.958515E-1,2.3211548E-1,-1.0143107E0,-1.0286055E-1,-3.3985028E-1,2.74012E-1,7.983122E-1,-1.5932474E-1,3.9780155E-1,3.7197274E-1,6.0549695E-2,-2.5435287E-1,-3.1447747E-1,7.837099E-2,1.7479661E-1,-5.5765927E-2,-7.1962565E-2,-3.256638E-1,-1.8013594E-1,2.5243264E-1,-1.1378434E-1,2.1914181E-1,3.6335644E-1,-1.03644E-3,-1.3895185E-1,1.6631408E-1,-2.667585E-2,3.235657E-1],"categories":[],"categories_nodes":[],"categories_segments":[],"categories_sizes":[],"default_left":[0,0,0,0,0,0,0,0,0,0,0,0,0,0,0,0,0,0,0,0,0,0,0,0,0,0,0,0,0,0,0,0,0,0,0,0,0,0,0,0,0,0,0,0,0,0,0,0,0,0,0],"id":2,"left_children":[1,3,5,7,9,11,13,-1,15,17,19,21,-1,-1,-1,23,25,27,29,31,33,-1,-1,35,37,39,41,-1,43,45,47,-1,49,-1,-1,-1,-1,-1,-1,-1,-1,-1,-1,-1,-1,-1,-1,-1,-1,-1,-1],"loss_changes":[1.1007711E1,3.9720182E0,2.0663233E0,4.4746222E0,3.7244084E0,2.9546468E0,1.1125422E0,0E0,4.249794E0,2.4655054E0,3.86851E0,3.2416773E-1,0E0,0E0,0E0,5.402948E0,3.4053383E0,3.6278052E0,1.9826894E0,1.9483867E0,1.0477343E0,0E0,0E0,1.9744959E0,3.8984542E0,2.3897457E-1,4.710944E0,0E0,1.3122473E0,1.104218E0,1.6595906E0,0E0,2.444542E0,0E0,0E0,0E0,0E0,0E0,0E0,0E0,0E0,0E0,0E0,0E0,0E0,0E0,0E0,0E0,0E0,0E0,0E0],"parents":[2147483647,0,0,1,1,2,2,3,3,4,4,5,5,6,6,8,8,9,9,10,10,11,11,15,15,16,16,17,17,18,18,19,19,20,20,23,23,24,24,25,25,26,26,28,28,29,29,30,30,32,32],"right_children":[2,4,6,8,10,12,14,-1,16,18,20,22,-1,-1,-1,24,26,28,30,32,34,-1,-1,36,38,40,42,-1,44,46,48,-1,50,-1,-1,-1,-1,-1,-1,-1,-1,-1,-1,-1,-1,-1,-1,-1,-1,-1,-1],"split_conditions":[6E0,6.97256E1,2E1,3E0,1.1E1,4.50567E0,1E1,-3.2652673E-1,1.7E1,3E0,4.5E1,2E1,-1.8551919E-1,6.914127E-2,3.908614E-1,1E0,2.9E1,3.9E1,3E0,-2.5337994E1,4.7E1,3.1032792E-1,5.314613E-2,-1.5384542E1,-5.086241E1,4E0,-1.3879616E1,-3.3985028E-1,1E0,3.9E1,1.5659799E2,3.9780155E-1,5.6957737E1,6.0549695E-2,-2.5435287E-1,-3.1447747E-1,7.837099E-2,1.7479661E-1,-5.5765927E-2,-7.1962565E-2,-3.256638E-1,-1.8013594E-1,2.5243264E-1,-1.1378434E-1,2.1914181E-1,3.6335644E-1,-1.03644E-3,-1.3895185E-1,1.6631408E-1,-2.667585E-2,3.235657E-1],"split_indices":[5,1,2,4,4,0,3,0,4,5,2,3,0,0,0,5,3,3,4,0,3,0,0,1,1,2,1,0,5,3,1,0,0,0,0,0,0,0,0,0,0,0,0,0,0,0,0,0,0,0,0],"split_type":[0,0,0,0,0,0,0,0,0,0,0,0,0,0,0,0,0,0,0,0,0,0,0,0,0,0,0,0,0,0,0,0,0,0,0,0,0,0,0,0,0,0,0,0,0,0,0,0,0,0,0],"sum_hessian":[8.980756E1,7.790587E1,1.1901696E1,5.1739655E1,2.616621E1,4.093929E0,7.8077674E0,5.496561E0,4.6243095E1,1.3971683E1,1.2194527E1,2.4052353E0,1.6886934E0,1.6906682E0,6.117099E0,3.0240534E1,1.600256E1,6.179794E0,7.791889E0,9.796827E0,2.3976994E0,1.2360873E0,1.169148E0,5.3738747E0,2.486666E1,8.051944E0,7.950617E0,3.7083528E0,2.4714413E0,2.32306E0,5.468829E0,3.5848286E0,6.211999E0,1.0789449E0,1.3187543E0,4.344797E0,1.0290779E0,1.3310476E1,1.1556183E1,1.046143E0,7.0058002E0,5.4453597E0,2.5052571E0,1.0860925E0,1.3853488E0,1.196345E0,1.1267151E0,4.0820107E0,1.3868183E0,4.288696E0,1.9233031E0],"tree_param":{"num_deleted":"0","num_feature":"6","num_nodes":"51","size_leaf_vector":"1"}},{"base_weights":[-6.184784E-3,-1.8233319E-1,4.4811147E-1,-4.0020216E-1,1.7718978E-2,5.162577E-1,-1.2020319E-1,-5.084967E-1,1.2936212E-1,-2.6705268E-1,2.9931456E-1,6.02868E-1,-1.4585714E-1,-1.77348E-1,-7.3578805E-1,2.1583456E-1,-2.018935E-1,4.2486852E-1,-6.6597444E-1,-1.914873E-1,4.5385957E-1,2.392986E-1,6.8465203E-1,1.2507938E-1,-2.2463498E-1,7.05404E-2,-6.7911273E-1,-1.7109635E-1,-9.90859E-1,-2.4550782E-1,2.7129686E-1,8.802519E-1,-2.8294858E-1,-3.2217503E-1,-3.9089018E-1,1.0786337E0,1.9155866E-2,-1.1937811E-1,2.0474774E-1,2.7841358E-3,7.6139295E-1,-8.759053E-2,3.275508E-1,-2.7245092E-1,-1.1261924E-2,-2.080674E-1,1.6604537E-1,-4.421158E-2,-3.3833453E-1,-1.6558971E-2,1.427364E-1,6.9402345E-2,3.3210033E-1,-1.599418E-1,3.8970068E-2,-2.4761498E-1,-7.38191E-3,5.674087E-2,4.0645507E-1,2.2501896E-1,-9.99926E-2,3.3973485E-1,1.3442075E-1],"categories":[],"categories_nodes":[],"categories_segments":[],"categories_sizes":[],"default_left":[0,0,0,0,0,0,0,0,0,0,0,0,0,0,0,0,0,0,0,0,0,0,0,0,0,0,0,0,0,0,0,0,0,0,0,0,0,0,0,0,0,0,0,0,0,0,0,0,0,0,0,0,0,0,0,0,0,0,0,0,0,0,0],"id":3,"left_children":[1,3,5,7,9,11,-1,13,15,17,19,21,23,25,27,-1,29,31,33,-1,35,37,39,-1,-1,41,43,45,47,-1,49,51,53,-1,55,57,59,-1,-1,-1,61,-1,-1,-1,-1,-1,-1,-1,-1,-1,-1,-1,-1,-1,-1,-1,-1,-1,-1,-1,-1,-1,-1],"loss_changes":[7.0859084E0,2.7870512E0,1.6381168E0,1.8191638E0,2.8231127E0,1.4265289E0,0E0,1.7952943E0,1.3157197E0,5.123481E0,2.8503478E0,4.557371E-1,1.501636E0,1.50707E0,1.9700727E0,0E0,1.56852E0,2.5130024E0,8.721905E-1,0E0,4.2583733E0,1.7864007E0,8.467207E-1,0E0,0E0,3.5612588E0,5.4981303E-1,2.5911992E0,9.914789E-1,0E0,2.5075746E-1,4.0857005E-1,4.314417E-1,0E0,1.3242538E0,1.3275805E0,2.9058068E0,0E0,0E0,0E0,1.2109308E0,0E0,0E0,0E0,0E0,0E0,0E0,0E0,0E0,0E0,0E0,0E0,0E0,0E0,0E0,0E0,0E0,0E0,0E0,0E0,0E0,0E0,0E0],"parents":[2147483647,0,0,1,1,2,2,3,3,4,4,5,5,7,7,8,8,9,9,10,10,11,11,12,12,13,13,14,14,16,16,17,17,18,18,20,20,21,21,22,22,25,25,26,26,27,27,28,28,30,30,31,31,32,32,34,34,35,35,36,36,40,40],"right_children":[2,4,6,8,10,12,-1,14,16,18,20,22,24,26,28,-1,30,32,34,-1,36,38,40,-1,-1,42,44,46,48,-1,50,52,54,-1,56,58,60,-1,-1,-1,62,-1,-1,-1,-1,-1,-1,-1,-1,-1,-1,-1,-1,-1,-1,-1,-1,-1,-1,-1,-1,-1,-1],"split_conditions":[5E0,1.1E1,7.972375E1,5.2E1,3.3E1,5.1E1,-1.2020319E-1,2.3E1,5.4E1,1.6E1,-1.3181323E2,4E0,-4.8123802E1,4.016691E1,4E0,2.1583456E-1,1.8904902E1,2.3E1,2E0,-1.914873E-1,4.6E1,6E0,-7.61451E1,1.2507938E-1,-2.2463498E-1,1.0879314E1,6.8746994E1,8.5503006E1,-9.8919464E1,-2.4550782E-1,-3.9150707E1,9E0,-1.5728069E1,-3.2217503E-1,-1.3879616E1,-2.2506506E1,1.5E1,-1.1937811E-1,2.0474774E-1,2.7841358E-3,-1.2781075E1,-8.759053E-2,3.275508E-1,-2.7245092E-1,-1.1261924E-2,-2.080674E-1,1.6604537E-1,-4.421158E-2,-3.3833453E-1,-1.6558971E-2,1.427364E-1,6.9402345E-2,3.3210033E-1,-1.599418E-1,3.8970068E-2,-2.4761498E-1,-7.38191E-3,5.674087E-2,4.0645507E-1,2.2501896E-1,-9.99926E-2,3.3973485E-1,1.3442075E-1],"split_indices":[5,4,0,3,3,3,0,3,3,4,1,4,0,0,4,0,1,3,5,0,3,5,0,0,0,0,0,1,1,0,0,3,0,0,1,1,2,0,0,0,0,0,0,0,0,0,0,0,0,0,0,0,0,0,0,0,0,0,0,0,0,0,0],"split_type":[0,0,0,0,0,0,0,0,0,0,0,0,0,0,0,0,0,0,0,0,0,0,0,0,0,0,0,0,0,0,0,0,0,0,0,0,0,0,0,0,0,0,0,0,0,0,0,0,0,0,0,0,0,0,0,0,0,0,0,0,0,0,0],"sum_hessian":[8.652675E1,6.2782265E1,2.3744488E1,2.957395E1,3.3208317E1,2.2342463E1,1.4020249E0,2.4585964E1,4.987984E0,1.6536722E1,1.6671593E1,1.9837084E1,2.50538E0,1.0731353E1,1.3854612E1,1.3720257E0,3.6159587E0,6.023701E0,1.0513021E1,1.9161873E0,1.4755405E1,4.363813E0,1.547327E1,1.4553766E0,1.0500032E0,7.7580395E0,2.9733133E0,4.830759E0,9.023853E0,1.253485E0,2.3624737E0,3.5172303E0,2.506471E0,3.0644996E0,7.448522E0,5.4463615E0,9.309044E0,1.8319569E0,2.531856E0,1.6931701E0,1.3780101E1,6.2527466E0,1.5052927E0,1.8848428E0,1.0884706E0,2.8317387E0,1.9990203E0,1.5502355E0,7.4736176E0,1.190994E0,1.1714796E0,1.4339123E0,2.0833182E0,1.3792584E0,1.1272124E0,2.8337152E0,4.6148067E0,1.689718E0,3.7566435E0,2.661606E0,6.6474376E0,5.1119347E0,8.668166E0],"tree_param":{"num_deleted":"0","num_feature":"6","num_nodes":"63","size_leaf_vector":"1"}},{"base_weights":[-8.780052E-3,-9.965727E-2,5.5059874E-1,-1.3795608E-1,4.4768956E-1,8.5309297E-1,6.878417E-2,-8.3971396E-2,-2.879786E-1,8.2536674E-1,-1.3408497E-1,9.6636945E-1,1.1236271E-1,-4.0285233E-1,2.5765088E-1,-4.0835252E-1,5.0209317E-2,3.3321333E-1,8.465295E-2,3.1975347E-1,9.242141E-2,4.063055E-2,-1.974786E-1,4.5508513E-1,-5.496928E-1,-1.4250226E-1,3.8342255E-1,1.922604E-1,2.2872522E-2,-2.680163E-1,-2.6704779E-2,1.4387552E-2,-1.6536379E-1,2.9366502E-1,3.537033E-2],"categories":[],"categories_nodes":[],"categories_segments":[],"categories_sizes":[],"default_left":[0,0,0,0,0,0,0,0,0,0,0,0,0,0,0,0,0,0,0,0,0,0,0,0,0,0,0,0,0,0,0,0,0,0,0],"id":4,"left_children":[1,3,5,7,9,11,13,15,-1,17,-1,19,-1,21,-1,23,25,-1,-1,-1,-1,-1,-1,27,29,31,33,-1,-1,-1,-1,-1,-1,-1,-1],"loss_changes":[4.3270364E0,1.5950139E0,1.6754639E0,2.9866552E0,2.0646527E0,2.9531002E-2,2.4612212E0,2.8914108E0,0E0,2.880082E-1,0E0,1.2594223E-2,0E0,6.714475E-1,0E0,2.6189091E0,3.1079562E0,0E0,0E0,0E0,0E0,0E0,0E0,1.8181306E-1,2.633092E0,2.428288E0,2.6821575E0,0E0,0E0,0E0,0E0,0E0,0E0,0E0,0E0],"parents":[2147483647,0,0,1,1,2,2,3,3,4,4,5,5,6,6,7,7,9,9,11,11,13,13,15,15,16,16,23,23,24,24,25,25,26,26],"right_children":[2,4,6,8,10,12,14,16,-1,18,-1,20,-1,22,-1,24,26,-1,-1,-1,-1,-1,-1,28,30,32,34,-1,-1,-1,-1,-1,-1,-1,-1],"split_conditions":[6E0,5.7E1,4.50567E0,5.5E1,4.309348E1,4.59749E1,3.6E1,-4.6460003E1,-2.879786E-1,2.4E1,-1.3408497E-1,1.3E1,1.1236271E-1,-1.4115909E2,2.5765088E-1,-8.351661E1,3.7E1,3.3321333E-1,8.465295E-2,3.1975347E-1,9.242141E-2,4.063055E-2,-1.974786E-1,2.6E1,3.2E1,1.7E1,-1.1128978E1,1.922604E-1,2.2872522E-2,-2.680163E-1,-2.6704779E-2,1.4387552E-2,-1.6536379E-1,2.9366502E-1,3.537033E-2],"split_indices":[5,3,0,3,0,1,2,0,0,2,0,4,0,1,0,0,3,0,0,0,0,0,0,3,2,4,0,0,0,0,0,0,0,0,0],"split_type":[0,0,0,0,0,0,0,0,0,0,0,0,0,0,0,0,0,0,0,0,0,0,0,0,0,0,0,0,0,0,0,0,0,0,0],"sum_hessian":[8.30402E1,7.2141815E1,1.0898385E1,6.812308E1,4.018736E0,6.221685E0,4.6766996E0,6.495893E1,3.1641488E0,2.880252E0,1.138484E0,4.2065873E0,2.0150976E0,3.2353754E0,1.4413244E0,1.840987E1,4.6549057E1,1.2033339E0,1.676918E0,3.1165533E0,1.0900341E0,1.1922945E0,2.0430808E0,2.27743E0,1.6132439E1,2.9854977E1,1.6694082E1,1.0640044E0,1.2134256E0,8.7013645E0,7.431075E0,2.096695E1,8.888029E0,4.3198047E0,1.2374277E1],"tree_param":{"num_deleted":"0","num_feature":"6","num_nodes":"35","size_leaf_vector":"1"}},{"base_weights":[7.2684686E-4,-1.2095086E-1,3.1633738E-1,-3.234613E-1,5.9907045E-2,9.3892135E-2,5.738233E-1,-7.797173E-1,-1.9367722E-1,-5.01032E-1,1.4849137E-1,6.7360663E-1,-1.0246149E-1,1.3601436E-1,8.6335224E-1,-2.993057E-1,-7.246188E-2,1.7884802E-2,-7.5103223E-1,-7.4786216E-1,3.376628E-2,3.2636544E-1,6.1570317E-2,3.2109243E-1,-2.433009E-3,5.322613E-1,-3.8730833E-1,-2.0756125E-1,1.8413548E-1,3.9397332E-1,3.3733374E-1,4.4985607E-1,-2.1135634E-1,-9.1794014E-1,-3.5560023E-2,-6.402044E-2,-2.6408252E-1,-1.8690808E-1,4.1401866E-1,2.3148037E-1,-1.9377997E-2,2.1117952E-1,-9.588945E-1,1.2419288E-1,-1.988632E-1,-3.694921E-2,2.3791197E-1,-5.4298397E-2,2.5406754E-1,6.6740535E-2,-2.1633591E-1,-9.135235E-2,-3.0622613E-1,-1.6354294E-1,1.4132068E-1,2.2022012E-1,-9.476083E-2,-5.6333013E-2,1.9505109E-1,-8.373868E-2,-3.2522193E-1],"categories":[],"categories_nodes":[],"categories_segments":[],"categories_sizes":[],"default_left":[0,0,0,0,0,0,0,0,0,0,0,0,0,0,0,0,0,0,0,0,0,0,0,0,0,0,0,0,0,0,0,0,0,0,0,0,0,0,0,0,0,0,0,0,0,0,0,0,0,0,0,0,0,0,0,0,0,0,0,0,0],"id":5,"left_children":[1,3,5,7,9,11,13,15,17,19,21,23,25,27,29,-1,-1,31,33,35,-1,-1,37,-1,-1,39,41,43,-1,45,-1,47,49,51,-1,-1,-1,53,55,-1,-1,57,59,-1,-1,-1,-1,-1,-1,-1,-1,-1,-1,-1,-1,-1,-1,-1,-1,-1,-1],"loss_changes":[3.1831725E0,2.2106566E0,1.2671309E0,1.5295768E0,1.6867468E0,1.613616E0,1.2128057E0,4.5755267E-1,2.775766E0,7.890264E-1,2.2841282E0,9.7285783E-1,2.195696E0,1.0079682E0,3.0822086E-1,0E0,0E0,1.8733393E0,5.7410693E-1,5.6280732E-2,0E0,0E0,2.4782972E0,0E0,0E0,5.969397E-1,2.9988396E0,1.3689669E0,0E0,8.675113E-1,0E0,1.792738E0,2.9053292E0,2.6245117E-3,0E0,0E0,0E0,4.209249E0,2.9526086E0,0E0,0E0,9.649773E-1,6.854391E-2,0E0,0E0,0E0,0E0,0E0,0E0,0E0,0E0,0E0,0E0,0E0,0E0,0E0,0E0,0E0,0E0,0E0,0E0],"parents":[2147483647,0,0,1,1,2,2,3,3,4,4,5,5,6,6,7,7,8,8,9,9,10,10,11,11,12,12,13,13,14,14,17,17,18,18,19,19,22,22,25,25,26,26,27,27,29,29,31,31,32,32,33,33,37,37,38,38,41,41,42,42],"right_children":[2,4,6,8,10,12,14,16,18,20,22,24,26,28,30,-1,-1,32,34,36,-1,-1,38,-1,-1,40,42,44,-1,46,-1,48,50,52,-1,-1,-1,54,56,-1,-1,58,60,-1,-1,-1,-1,-1,-1,-1,-1,-1,-1,-1,-1,-1,-1,-1,-1,-1,-1],"split_conditions":[5E0,1.1E1,1.3972683E1,1E0,-1.3181323E2,1.4E1,1E1,3.4E1,4E0,3.4E1,-8.1342964E1,-1.9313154E1,-6.271483E1,3.5E1,-2.2236593E1,-2.993057E-1,-7.246188E-2,-5.7150784E1,7E0,2E0,3.376628E-2,3.2636544E-1,2.6296223E1,3.2109243E-1,-2.433009E-3,1E1,-8.631599E1,3E0,1.8413548E-1,2.9E1,3.3733374E-1,7E0,6E0,-6.501154E1,-3.5560023E-2,-6.402044E-2,-2.6408252E-1,7.082538E1,8.675059E1,2.3148037E-1,-1.9377997E-2,3.3E1,2.2E1,1.2419288E-1,-1.988632E-1,-3.694921E-2,2.3791197E-1,-5.4298397E-2,2.5406754E-1,6.6740535E-2,-2.1633591E-1,-9.135235E-2,-3.0622613E-1,-1.6354294E-1,1.4132068E-1,2.2022012E-1,-9.476083E-2,-5.6333013E-2,1.9505109E-1,-8.373868E-2,-3.2522193E-1],"split_indices":[5,4,1,5,1,2,4,2,5,2,0,1,0,2,0,0,0,1,4,5,0,0,0,0,0,4,1,4,0,3,0,4,4,0,0,0,0,1,1,0,0,3,3,0,0,0,0,0,0,0,0,0,0,0,0,0,0,0,0,0,0],"split_type":[0,0,0,0,0,0,0,0,0,0,0,0,0,0,0,0,0,0,0,0,0,0,0,0,0,0,0,0,0,0,0,0,0,0,0,0,0,0,0,0,0,0,0,0,0,0,0,0,0,0,0,0,0,0,0,0,0,0,0,0,0],"sum_hessian":[8.089284E1,5.882914E1,2.2063698E1,2.738127E1,3.144787E1,1.25694475E1,9.49425E0,4.9548135E0,2.2426455E1,3.6539724E0,2.7793898E1,2.5652432E0,1.0004204E1,4.364414E0,5.129836E0,2.9188306E0,2.0359828E0,1.6957575E1,5.468881E0,2.4496875E0,1.2042848E0,1.378633E0,2.6415264E1,1.261271E0,1.3039721E0,2.8298578E0,7.1743464E0,2.8677287E0,1.4966855E0,2.7303343E0,2.3995018E0,5.5455084E0,1.1412066E1,3.9699686E0,1.4989125E0,1.0049648E0,1.4447228E0,1.5768239E1,1.0647025E1,1.8109031E0,1.0189548E0,3.8127193E0,3.3616269E0,1.2509246E0,1.6168041E0,1.4903752E0,1.2399592E0,2.352211E0,3.1932971E0,6.469716E0,4.94235E0,1.1385586E0,2.83141E0,1.0320654E1,5.447585E0,7.3975506E0,3.2494748E0,2.2972367E0,1.5154827E0,1.0250537E0,2.3365734E0],"tree_param":{"num_deleted":"0","num_feature":"6","num_nodes":"61","size_leaf_vector":"1"}},{"base_weights":[6.540549E-4,-6.675521E-2,4.2801425E-1,-2.6303545E-1,1.9428201E-2,6.691252E-1,5.2469723E-2,-3.5540253E-2,-8.614538E-1,1.5773557E-1,-1.7639843E-1,7.6726305E-1,5.0200377E-2,-2.9479003E-1,2.086095E-1,-4.5100257E-1,2.331184E-1,-3.032592E-1,-5.28394E-2,4.7815096E-1,-4.7198325E-2,-5.3093106E-1,1.8833508E-1,6.9473855E-2,2.905888E-1,-1.8202919E-1,5.0706165E-3,-7.0282185E-1,1.0566905E-1,-1.19779006E-1,5.6800485E-1,9.0612285E-2,3.4724653E-1,2.025182E-1,-3.993222E-1,-2.8998256E-1,-2.4947144E-1,-2.0643787E-1,4.370282E-1,-3.1945205E-1,1.03715196E-1,1.0666373E-1,-1.08406365E-1,3.219771E-1,-2.3117209E-2,2.1497343E-1,-1.0640955E-1,-8.3020285E-2,1.5702398E-1,5.4766696E-2,-2.3091961E-1,1.8692705E-1,-1.7355621E-1,3.3198252E-2,-2.156721E-1,3.1149596E-1,4.161198E-2],"categories":[],"categories_nodes":[],"categories_segments":[],"categories_sizes":[],"default_left":[0,0,0,0,0,0,0,0,0,0,0,0,0,0,0,0,0,0,0,0,0,0,0,0,0,0,0,0,0,0,0,0,0,0,0,0,0,0,0,0,0,0,0,0,0,0,0,0,0,0,0,0,0,0,0,0,0],"id":6,"left_children":[1,3,5,7,9,11,13,15,17,19,21,23,-1,25,-1,27,29,-1,-1,31,33,35,37,-1,-1,-1,-1,39,-1,41,43,45,-1,47,49,-1,51,53,55,-1,-1,-1,-1,-1,-1,-1,-1,-1,-1,-1,-1,-1,-1,-1,-1,-1,-1],"loss_changes":[2.3079095E0,1.1758199E0,9.531981E-1,2.8534122E0,1.3555522E0,1.9475484E-1,1.3999925E0,1.9348251E0,4.1504526E-1,1.9437925E0,2.7849443E0,3.3764362E-1,0E0,4.1649806E-1,0E0,1.6185751E0,1.3224379E0,0E0,0E0,2.9235804E0,1.7300314E0,1.082103E0,1.1674956E0,0E0,0E0,0E0,0E0,2.4536872E0,0E0,8.167517E-1,1.9144572E0,2.5983648E0,0E0,1.9344565E0,1.8903062E0,0E0,2.6297219E0,8.790776E-1,1.1210837E0,0E0,0E0,0E0,0E0,0E0,0E0,0E0,0E0,0E0,0E0,0E0,0E0,0E0,0E0,0E0,0E0,0E0,0E0],"parents":[2147483647,0,0,1,1,2,2,3,3,4,4,5,5,6,6,7,7,8,8,9,9,10,10,11,11,13,13,15,15,16,16,19,19,20,20,21,21,22,22,27,27,29,29,30,30,31,31,33,33,34,34,36,36,37,37,38,38],"right_children":[2,4,6,8,10,12,14,16,18,20,22,24,-1,26,-1,28,30,-1,-1,32,34,36,38,-1,-1,-1,-1,40,-1,42,44,46,-1,48,50,-1,52,54,56,-1,-1,-1,-1,-1,-1,-1,-1,-1,-1,-1,-1,-1,-1,-1,-1,-1,-1],"split_conditions":[6E0,7E0,4.50567E0,3.2042908E1,1.7E1,3.8E1,3.6E1,5.276731E0,4.9E1,2.3E1,3.5E1,-7.61451E1,5.0200377E-2,1.8E1,2.086095E-1,5.2E1,2.9E1,-3.032592E-1,-5.28394E-2,1.7E1,3.4E1,-2.2506506E1,-1.3879616E1,6.9473855E-2,2.905888E-1,-1.8202919E-1,5.0706165E-3,1.504898E0,1.0566905E-1,1E1,4.1E1,-2.6317951E1,3.4724653E-1,-8.1146E0,-6.2405552E1,-2.8998256E-1,1.726415E0,5.3E1,4.065825E1,-3.1945205E-1,1.03715196E-1,1.0666373E-1,-1.08406365E-1,3.219771E-1,-2.3117209E-2,2.1497343E-1,-1.0640955E-1,-8.3020285E-2,1.5702398E-1,5.4766696E-2,-2.3091961E-1,1.8692705E-1,-1.7355621E-1,3.3198252E-2,-2.156721E-1,3.1149596E-1,4.161198E-2],"split_indices":[5,4,0,0,4,3,2,1,3,3,3,0,0,2,0,3,2,0,0,3,2,1,1,0,0,0,0,0,0,2,2,0,0,0,1,0,1,3,1,0,0,0,0,0,0,0,0,0,0,0,0,0,0,0,0,0,0],"split_type":[0,0,0,0,0,0,0,0,0,0,0,0,0,0,0,0,0,0,0,0,0,0,0,0,0,0,0,0,0,0,0,0,0,0,0,0,0,0,0,0,0,0,0,0,0,0,0,0,0,0,0,0,0,0,0,0,0],"sum_hessian":[7.812157E1,6.8206825E1,9.914744E0,2.0184704E1,4.8022118E1,5.5620155E0,4.3527293E0,1.5392477E1,4.7922263E0,2.8258425E1,1.9763695E1,4.2096596E0,1.3523557E0,3.177739E0,1.1749902E0,5.778186E0,9.614291E0,3.5444627E0,1.2477635E0,1.0503283E1,1.7755142E1,9.790929E0,9.972765E0,1.7375067E0,2.472153E0,1.1150267E0,2.0627122E0,4.494223E0,1.283963E0,4.994015E0,4.6202755E0,7.4096913E0,3.0935915E0,1.0636732E1,7.1184096E0,2.887317E0,6.903612E0,3.9200406E0,6.052724E0,3.3292284E0,1.1649945E0,1.5238682E0,3.4701471E0,2.218672E0,2.4016035E0,2.8268592E0,4.582832E0,4.3209977E0,6.315735E0,2.9661024E0,4.152307E0,1.6457802E0,5.257832E0,2.9059806E0,1.0140599E0,1.1845757E0,4.8681483E0],"tree_param":{"num_deleted":"0","num_feature":"6","num_nodes":"57","size_leaf_vector":"1"}},{"base_weights":[3.396878E-3,-9.6358985E-2,2.6844263E-1,-5.3061828E-2,-2.3383398E-1,6.411352E-2,4.6323752E-1,-1.2116864E-1,3.494038E-1,3.5071048E-1,-2.7790943E-1,1.9685715E-1,7.314954E-1,-1.6761209E-1,4.0969756E-1,6.757917E-1,-3.8214526E-1,-7.199172E-2,7.2586834E-1,1.3161327E-1,-2.1433789E-1,4.263191E-1,-1.3474329E-1,2.1193618E-2,2.872493E-1,-8.235167E-2,-4.2155927E-1,-2.3066167E-2,2.2073333E-1,2.6584703E-1,-2.6930723E-2,-2.3617792E-1,7.101586E-2,1.09148465E-1,-1.7612138E-1,5.962809E-2,2.675008E-1,1.1072738E-1,-2.769029E-2,5.760429E-2,2.6029667E-1,-5.1698867E-2,1.18024506E-1,-2.991169E-1,-4.6040706E-2,1.3723123E-1,-1.2213446E-1],"categories":[],"categories_nodes":[],"categories_segments":[],"categories_sizes":[],"default_left":[0,0,0,0,0,0,0,0,0,0,0,0,0,0,0,0,0,0,0,0,0,0,0,0,0,0,0,0,0,0,0,0,0,0,0,0,0,0,0,0,0,0,0,0,0,0,0],"id":7,"left_children":[1,3,5,7,-1,9,11,13,15,17,19,21,23,25,27,29,31,33,35,37,-1,39,-1,-1,-1,41,43,-1,-1,-1,-1,-1,-1,-1,-1,-1,-1,-1,-1,45,-1,-1,-1,-1,-1,-1,-1],"loss_changes":[2.0372138E0,1.6150653E0,8.0878866E-1,1.5154096E0,0E0,1.2190608E0,6.1518717E-1,1.2202035E0,2.176879E0,1.109609E0,1.1263934E0,1.1844805E0,6.679561E-1,9.105444E-1,6.988015E-1,1.0325725E0,9.680383E-1,1.1216048E0,1.3937795E-1,2.374053E-1,0E0,8.378854E-1,0E0,0E0,0E0,1.5201613E0,1.5025641E0,0E0,0E0,0E0,0E0,0E0,0E0,0E0,0E0,0E0,0E0,0E0,0E0,9.376021E-1,0E0,0E0,0E0,0E0,0E0,0E0,0E0],"parents":[2147483647,0,0,1,1,2,2,3,3,5,5,6,6,7,7,8,8,9,9,10,10,11,11,12,12,13,13,14,14,15,15,16,16,17,17,18,18,19,19,21,21,25,25,26,26,39,39],"right_children":[2,4,6,8,-1,10,12,14,16,18,20,22,24,26,28,30,32,34,36,38,-1,40,-1,-1,-1,42,44,-1,-1,-1,-1,-1,-1,-1,-1,-1,-1,-1,-1,46,-1,-1,-1,-1,-1,-1,-1],"split_conditions":[5E0,1.656604E2,8.23805E-1,1.2133481E2,-2.3383398E-1,-8.631599E1,3.3E1,8.099301E1,3.9E1,3.3E1,3.8E1,1.528716E2,1.8E1,4.4673103E1,2.5E1,1.6010353E2,1.4798473E2,-1.378066E2,-1.3970894E2,-5.485402E0,-2.1433789E-1,1.0239151E2,-1.3474329E-1,2.1193618E-2,2.872493E-1,2.6296223E1,1.5E1,-2.3066167E-2,2.2073333E-1,2.6584703E-1,-2.6930723E-2,-2.3617792E-1,7.101586E-2,1.09148465E-1,-1.7612138E-1,5.962809E-2,2.675008E-1,1.1072738E-1,-2.769029E-2,4.59749E1,2.6029667E-1,-5.1698867E-2,1.18024506E-1,-2.991169E-1,-4.6040706E-2,1.3723123E-1,-1.2213446E-1],"split_indices":[5,1,1,1,0,1,2,0,2,3,3,1,3,0,2,1,1,1,1,0,0,1,0,0,0,0,3,0,0,0,0,0,0,0,0,0,0,0,0,1,0,0,0,0,0,0,0],"split_type":[0,0,0,0,0,0,0,0,0,0,0,0,0,0,0,0,0,0,0,0,0,0,0,0,0,0,0,0,0,0,0,0,0,0,0,0,0,0,0,0,0,0,0,0,0,0,0],"sum_hessian":[7.507251E1,5.5006165E1,2.0066347E1,5.2740887E1,2.2652745E0,1.0442194E1,9.624153E0,4.570538E1,7.035509E0,5.667626E0,4.774568E0,5.6989374E0,3.9252162E0,4.265769E1,3.047691E0,4.917663E0,2.117846E0,3.044921E0,2.6227052E0,2.823959E0,1.9506087E0,4.456159E0,1.2427783E0,1.3347831E0,2.5904331E0,3.292703E1,9.73066E0,1.5295167E0,1.5181745E0,3.7340686E0,1.1835947E0,1.1155161E0,1.0023298E0,1.8084221E0,1.2364987E0,1.1536984E0,1.4690067E0,1.0558211E0,1.768138E0,3.0437658E0,1.4123933E0,2.8226555E1,4.700473E0,2.2282567E0,7.5024033E0,1.6445252E0,1.3992406E0],"tree_param":{"num_deleted":"0","num_feature":"6","num_nodes":"47","size_leaf_vector":"1"}},{"base_weights":[7.0504495E-3,-7.5021006E-2,2.302277E-1,-1.1627532E-1,4.331611E-1,4.3639055E-1,5.8804248E-2,-7.127843E-2,-2.5886247E-1,-8.575284E-2,7.380358E-1,8.1483144E-1,4.4094127E-2,-1.9441305E-1,4.6024024E-1,-1.2304557E-1,2.0133309E-1,2.7286202E-1,6.789004E-2,8.83559E-2,2.985161E-1,-2.342091E-1,1.6220483E-1,2.0608148E-1,-4.6386606E-1,5.9274957E-2,2.4055715E-1,-3.1380108E-1,3.3151556E-2,-2.234622E-1,7.30513E-2,-6.4265594E-2,1.3515632E-1,-6.548051E-1,4.943416E-3,1.2757306E-1,-9.814959E-2,1.4770332E-2,-1.4835146E-1,-1.23950176E-1,3.4528557E-2,-4.7863152E-2,-2.3754773E-1],"categories":[],"categories_nodes":[],"categories_segments":[],"categories_sizes":[],"default_left":[0,0,0,0,0,0,0,0,0,0,0,0,0,0,0,0,0,0,0,0,0,0,0,0,0,0,0,0,0,0,0,0,0,0,0,0,0,0,0,0,0,0,0],"id":8,"left_children":[1,3,5,7,9,11,13,15,-1,-1,17,19,21,23,25,27,-1,-1,-1,-1,-1,29,-1,31,33,35,-1,37,39,-1,-1,-1,-1,41,-1,-1,-1,-1,-1,-1,-1,-1,-1],"loss_changes":[1.3690547E0,1.197405E0,6.8429196E-1,1.6650302E0,1.1578734E0,1.2949402E0,1.3219022E0,1.9873047E0,0E0,0E0,8.490455E-2,1.2943363E-1,8.810583E-1,9.7375894E-1,6.355088E-1,1.4160392E0,0E0,0E0,0E0,0E0,0E0,1.2050132E0,0E0,5.039005E-1,4.851718E-1,6.162682E-1,0E0,1.4239066E0,1.0292474E0,0E0,0E0,0E0,0E0,1.2649322E-1,0E0,0E0,0E0,0E0,0E0,0E0,0E0,0E0,0E0],"parents":[2147483647,0,0,1,1,2,2,3,3,4,4,5,5,6,6,7,7,10,10,11,11,12,12,13,13,14,14,15,15,21,21,23,23,24,24,25,25,27,27,28,28,33,33],"right_children":[2,4,6,8,10,12,14,16,-1,-1,18,20,22,24,26,28,-1,-1,-1,-1,-1,30,-1,32,34,36,-1,38,40,-1,-1,-1,-1,42,-1,-1,-1,-1,-1,-1,-1,-1,-1],"split_conditions":[5E0,5.7E1,2.8E1,5.5E1,7.90204E-1,3.1E1,3.5E1,5.3E1,-2.5886247E-1,-8.575284E-2,1.01345215E2,1E1,1.2805074E2,1.4E1,-2.8165442E1,1.1E1,2.0133309E-1,2.7286202E-1,6.789004E-2,8.83559E-2,2.985161E-1,1E1,1.6220483E-1,8E0,1.3972683E1,-9.103264E1,2.4055715E-1,1.6E1,-1.3181323E2,-2.234622E-1,7.30513E-2,-6.4265594E-2,1.3515632E-1,1.3E1,4.943416E-3,1.2757306E-1,-9.814959E-2,1.4770332E-2,-1.4835146E-1,-1.23950176E-1,3.4528557E-2,-4.7863152E-2,-2.3754773E-1],"split_indices":[5,3,3,3,1,2,2,3,0,0,1,4,1,2,1,4,0,0,0,0,0,3,0,2,1,1,0,3,1,0,0,0,0,4,0,0,0,0,0,0,0,0,0],"split_type":[0,0,0,0,0,0,0,0,0,0,0,0,0,0,0,0,0,0,0,0,0,0,0,0,0,0,0,0,0,0,0,0,0,0,0,0,0,0,0,0,0,0,0],"sum_hessian":[7.2801445E1,5.3712864E1,1.908858E1,5.0393135E1,3.31973E0,7.9644384E0,1.1124142E1,4.856183E1,1.8313075E0,1.0070858E0,2.3126442E0,3.505586E0,4.458853E0,7.1376004E0,3.9865408E0,4.6176193E1,2.3856325E0,1.1499008E0,1.1627436E0,1.5795468E0,1.9260391E0,3.1960523E0,1.2628002E0,2.9653358E0,4.1722646E0,2.373827E0,1.6127139E0,2.0334145E1,2.584205E1,1.2744479E0,1.9216045E0,1.1358826E0,1.8294532E0,2.7256181E0,1.4466465E0,1.1676352E0,1.2061917E0,6.999541E0,1.3334603E1,3.381592E0,2.2460459E1,1.0597017E0,1.6659166E0],"tree_param":{"num_deleted":"0","num_feature":"6","num_nodes":"43","size_leaf_vector":"1"}},{"base_weights":[1.027843E-2,-1.2241477E-1,1.0463195E-1,-4.9396816E-1,9.247978E-2,3.781356E-1,-1.1683148E-1,-6.171838E-1,7.985751E-2,-3.8384208E-1,2.6330194E-1,-2.6357627E-1,4.7988603E-1,-1.9670981E-1,2.4752581E-1,5.3820284E-3,-7.611672E-1,1.7089029E-1,-2.3632857E-1,6.353852E-1,7.93751E-2,6.5452894E-3,-1.2634285E-1,1.7853523E-2,6.684038E-1,3.229615E-1,-3.5986412E-1,2.1940384E-2,-9.174581E-1,3.329452E-1,-2.2200212E-2,-3.244759E-1,2.884189E-1,1.6677868E-1,-2.8698868E-1,3.47524E-1,2.2505254E-1,2.3367085E-1,7.110658E-2,-3.1256458E-1,-9.822366E-2,-3.1696057E-1,-7.290302E-2,-2.0123449E-1,1.0957564E-1,1.2774584E-1,-5.1363666E-2,4.9984854E-2,-2.3066548E-1,-1.7719044E-1,1.9911839E-1,1.7339024E-1,-8.328116E-2,2.3419708E-2,-1.675419E-1],"categories":[],"categories_nodes":[],"categories_segments":[],"categories_sizes":[],"default_left":[0,0,0,0,0,0,0,0,0,0,0,0,0,0,0,0,0,0,0,0,0,0,0,0,0,0,0,0,0,0,0,0,0,0,0,0,0,0,0,0,0,0,0,0,0,0,0,0,0,0,0,0,0,0,0],"id":9,"left_children":[1,3,5,7,9,11,13,15,-1,17,19,21,23,25,-1,-1,27,-1,-1,29,31,-1,-1,33,35,37,39,-1,41,-1,-1,43,45,-1,47,-1,49,-1,51,-1,53,-1,-1,-1,-1,-1,-1,-1,-1,-1,-1,-1,-1,-1,-1],"loss_changes":[9.123911E-1,2.4665742E0,2.6203425E0,1.2196875E0,1.7326243E0,1.3844388E0,1.9880047E0,9.279101E-1,0E0,2.643911E0,1.0002074E0,1.5678406E-1,1.4673641E0,2.081236E0,0E0,0E0,1.1328096E0,0E0,0E0,1.7432624E0,1.0573907E0,0E0,0E0,1.1353476E0,2.353777E0,6.410298E-1,3.129505E0,0E0,3.9585352E-1,0E0,0E0,1.2874858E0,5.81417E-1,0E0,1.1023802E0,0E0,3.0968833E0,0E0,1.0454491E0,0E0,1.1952417E0,0E0,0E0,0E0,0E0,0E0,0E0,0E0,0E0,0E0,0E0,0E0,0E0,0E0,0E0],"parents":[2147483647,0,0,1,1,2,2,3,3,4,4,5,5,6,6,7,7,9,9,10,10,11,11,12,12,13,13,16,16,19,19,20,20,23,23,24,24,25,25,26,26,28,28,31,31,32,32,34,34,36,36,38,38,40,40],"right_children":[2,4,6,8,10,12,14,16,-1,18,20,22,24,26,-1,-1,28,-1,-1,30,32,-1,-1,34,36,38,40,-1,42,-1,-1,44,46,-1,48,-1,50,-1,52,-1,54,-1,-1,-1,-1,-1,-1,-1,-1,-1,-1,-1,-1,-1,-1],"split_conditions":[3E0,-3.656353E1,-1.4617203E1,5.6E1,1.3E1,-1.175855E2,2.2E1,4E0,7.985751E-2,3E0,2.4E1,2.5E1,6E0,1.4E1,2.4752581E-1,5.3820284E-3,1E1,1.7089029E-1,-2.3632857E-1,4.319755E1,-5.290186E1,6.5452894E-3,-1.2634285E-1,4E0,1.1732196E1,5.463791E0,2.2E1,2.1940384E-2,8.297869E1,3.329452E-1,-2.2200212E-2,6.8232864E1,5.3E1,1.6677868E-1,3E0,3.47524E-1,6.2368717E1,2.3367085E-1,-1.9313154E1,-3.1256458E-1,1.7E1,-3.1696057E-1,-7.290302E-2,-2.0123449E-1,1.0957564E-1,1.2774584E-1,-5.1363666E-2,4.9984854E-2,-2.3066548E-1,-1.7719044E-1,1.9911839E-1,1.7339024E-1,-8.328116E-2,2.3419708E-2,-1.675419E-1],"split_indices":[5,0,0,3,2,1,4,4,0,2,2,2,4,2,0,0,3,0,0,0,1,0,0,5,1,0,2,0,1,0,0,0,2,0,4,0,1,0,1,0,4,0,0,0,0,0,0,0,0,0,0,0,0,0,0],"split_type":[0,0,0,0,0,0,0,0,0,0,0,0,0,0,0,0,0,0,0,0,0,0,0,0,0,0,0,0,0,0,0,0,0,0,0,0,0,0,0,0,0,0,0,0,0,0,0,0,0,0,0,0,0,0,0],"sum_hessian":[7.085124E1,2.9319971E1,4.1531273E1,1.0267967E1,1.9052004E1,1.8265833E1,2.326544E1,8.997615E0,1.2703527E0,4.6998577E0,1.4352146E1,2.282201E0,1.5983632E1,2.217599E1,1.0894513E0,1.8245891E0,7.1730256E0,1.2764521E0,3.4234054E0,3.935696E0,1.04164505E1,1.1182655E0,1.1639357E0,4.948995E0,1.1034637E1,5.064691E0,1.7111298E1,1.215671E0,5.957355E0,2.020155E0,1.9155409E0,3.364463E0,7.051987E0,1.4919322E0,3.457063E0,4.4753957E0,6.559242E0,1.0575354E0,4.0071554E0,3.9174843E0,1.3193814E1,4.4692397E0,1.488115E0,2.2581415E0,1.1063216E0,5.4856796E0,1.5663077E0,2.117823E0,1.3392401E0,2.1727517E0,4.38649E0,1.3652631E0,2.6418924E0,1.0140197E1,3.053617E0],"tree_param":{"num_deleted":"0","num_feature":"6","num_nodes":"55","size_leaf_vector":"1"}},{"base_weights":[7.7435933E-3,-3.3881657E-2,2.852303E-1,-2.0834537E-1,3.9225526E-2,5.0760955E-1,-3.4909368E-2,-1.847054E-2,-7.4756545E-1,1.6627528E-1,-1.4104879E-1,1.9333848E-1,2.432926E-2,-1.2269435E-1,2.5795844E-1,-2.7916083E-1,2.563976E-1,-2.5805962E-1,-6.5544486E-2,4.0519372E-1,-3.8627136E-2,-2.2667377E-1,1.5659E-2,6.209481E-3,1.1088682E-1,-6.5650815E-1,1.4386666E-1,7.856599E-1,-2.9859185E-1,-1.9174422E-1,6.826577E-1,-3.9495495E-1,2.8984824E-1,-2.6222906E-1,3.238563E-1,-2.3723562E-1,-7.3066555E-2,1.304705E-1,-1.1488498E-1,2.728631E-1,6.389359E-2,-1.7754999E-1,8.932213E-3,2.5848624E-1,6.969048E-2,4.1272152E-2,-2.1472682E-1,2.3289923E-1,1.0137168E-2,-2.3541372E-1,-2.7270666E-3,-5.0836664E-2,1.6031022E-1],"categories":[],"categories_nodes":[],"categories_segments":[],"categories_sizes":[],"default_left":[0,0,0,0,0,0,0,0,0,0,0,0,0,0,0,0,0,0,0,0,0,0,0,0,0,0,0,0,0,0,0,0,0,0,0,0,0,0,0,0,0,0,0,0,0,0,0,0,0,0,0,0,0],"id":10,"left_children":[1,3,5,7,9,11,13,15,17,19,21,-1,-1,-1,23,25,27,-1,-1,29,31,-1,33,-1,-1,35,37,39,41,-1,43,45,47,49,51,-1,-1,-1,-1,-1,-1,-1,-1,-1,-1,-1,-1,-1,-1,-1,-1,-1,-1],"loss_changes":[8.1300026E-1,7.9094243E-1,6.711502E-1,1.8579223E0,1.0332911E0,2.676263E-1,6.201693E-1,1.1138624E0,9.426904E-2,1.3042493E0,1.8192506E0,0E0,0E0,0E0,7.840443E-2,1.3625665E0,2.467453E0,0E0,0E0,3.982887E0,1.8798339E0,0E0,1.4496217E0,0E0,0E0,5.0191164E-2,8.6655945E-1,1.0187411E-1,4.446921E-1,0E0,6.182041E-1,1.4067129E0,1.0232284E0,1.1741984E0,9.2160606E-1,0E0,0E0,0E0,0E0,0E0,0E0,0E0,0E0,0E0,0E0,0E0,0E0,0E0,0E0,0E0,0E0,0E0,0E0],"parents":[2147483647,0,0,1,1,2,2,3,3,4,4,5,5,6,6,7,7,8,8,9,9,10,10,14,14,15,15,16,16,19,19,20,20,22,22,25,25,26,26,27,27,28,28,30,30,31,31,32,32,33,33,34,34],"right_children":[2,4,6,8,10,12,14,16,18,20,22,-1,-1,-1,24,26,28,-1,-1,30,32,-1,34,-1,-1,36,38,40,42,-1,44,46,48,50,52,-1,-1,-1,-1,-1,-1,-1,-1,-1,-1,-1,-1,-1,-1,-1,-1,-1,-1],"split_conditions":[6E0,7E0,4.50567E0,3.2042908E1,1.7E1,4.59749E1,2E1,2.9E1,4.9E1,-4.5388424E1,1.8E1,1.9333848E-1,2.432926E-2,-1.2269435E-1,-9.6913925E1,-4.652989E1,4.4E1,-2.5805962E-1,-6.5544486E-2,1E0,4.902385E1,-2.2667377E-1,3.9E1,6.209481E-3,1.1088682E-1,7.6764915E1,4.1E1,9.734667E1,1.8904902E1,-1.9174422E-1,3.6E1,2E0,8.288861E1,-2.2506506E1,-4.925673E1,-2.3723562E-1,-7.3066555E-2,1.304705E-1,-1.1488498E-1,2.728631E-1,6.389359E-2,-1.7754999E-1,8.932213E-3,2.5848624E-1,6.969048E-2,4.1272152E-2,-2.1472682E-1,2.3289923E-1,1.0137168E-2,-2.3541372E-1,-2.7270666E-3,-5.0836664E-2,1.6031022E-1],"split_indices":[5,4,0,0,4,1,2,2,3,1,4,0,0,0,1,0,2,0,0,5,1,0,3,0,0,1,3,1,1,0,3,5,1,1,0,0,0,0,0,0,0,0,0,0,0,0,0,0,0,0,0,0,0],"split_type":[0,0,0,0,0,0,0,0,0,0,0,0,0,0,0,0,0,0,0,0,0,0,0,0,0,0,0,0,0,0,0,0,0,0,0,0,0,0,0,0,0,0,0,0,0,0,0,0,0,0,0,0,0],"sum_hessian":[6.8550186E1,6.0371822E1,8.178363E0,1.7281416E1,4.3090405E1,4.4804864E0,3.6978765E0,1.3545805E1,3.7356114E0,2.5322105E1,1.77683E1,3.005218E0,1.4752685E0,1.4497199E0,2.2481565E0,6.9441867E0,6.6016183E0,2.5639598E0,1.1716516E0,1.1239375E1,1.408273E1,2.8338323E0,1.4934467E1,1.098809E0,1.1493474E0,3.3785434E0,3.565643E0,3.1663847E0,3.4352336E0,2.0856621E0,9.153713E0,6.6578994E0,7.4248314E0,7.931832E0,7.0026355E0,1.8590844E0,1.519459E0,2.4091837E0,1.1564593E0,2.11964E0,1.0467446E0,1.3908237E0,2.04441E0,5.897113E0,3.2566004E0,2.7176929E0,3.9402063E0,1.8597136E0,5.565118E0,1.903351E0,6.028481E0,2.1527975E0,4.849838E0],"tree_param":{"num_deleted":"0","num_feature":"6","num_nodes":"53","size_leaf_vector":"1"}},{"base_weights":[-3.0954138E-3,-1.1390744E-1,8.746914E-2,-5.84246E-1,-3.189768E-2,1.0199099E-2,3.949304E-1,-2.4598359E-1,-2.1768043E-2,8.501865E-2,-3.8369942E-1,7.700056E-2,-5.5650693E-1,5.812556E-1,-2.3023963E-2,1.1005782E-3,2.1227826E-1,-6.560925E-1,1.2691103E-1,-1.6625877E-4,2.4078116E-1,-1.2039197E-2,-2.4462815E-1,2.1808803E-1,-9.519485E-4,2.3372301E-1,-1.6882235E-1,-2.8044346E-1,-2.6680407E-1,-2.1327601E-1,2.72409E-1,1.8765965E-1,-1.7618833E-2,-1.2142523E-1,2.1146111E-2,4.597578E-2,-2.0696557E-1,2.1135981E-1,-1.0104645E-1,1.7538872E-1,-2.5781935E-2],"categories":[],"categories_nodes":[],"categories_segments":[],"categories_sizes":[],"default_left":[0,0,0,0,0,0,0,0,0,0,0,0,0,0,0,0,0,0,0,0,0,0,0,0,0,0,0,0,0,0,0,0,0,0,0,0,0,0,0,0,0],"id":11,"left_children":[1,3,5,7,9,11,13,-1,-1,15,17,19,21,23,-1,25,-1,27,-1,29,-1,-1,-1,-1,-1,31,33,-1,35,37,39,-1,-1,-1,-1,-1,-1,-1,-1,-1,-1],"loss_changes":[6.8347925E-1,1.1623194E0,8.8677907E-1,4.8178077E-1,1.1484575E0,1.2160923E0,7.04118E-1,0E0,0E0,1.1057925E0,1.8044354E0,1.6016335E0,4.204551E-1,4.7030234E-1,0E0,8.1681406E-1,0E0,3.5672808E-1,0E0,1.6179154E0,0E0,0E0,0E0,0E0,0E0,1.0360186E0,7.029537E-1,0E0,7.686651E-1,2.0097136E0,1.4176282E0,0E0,0E0,0E0,0E0,0E0,0E0,0E0,0E0,0E0,0E0],"parents":[2147483647,0,0,1,1,2,2,3,3,4,4,5,5,6,6,9,9,10,10,11,11,12,12,13,13,15,15,17,17,19,19,25,25,26,26,28,28,29,29,30,30],"right_children":[2,4,6,8,10,12,14,-1,-1,16,18,20,22,24,-1,26,-1,28,-1,30,-1,-1,-1,-1,-1,32,34,-1,36,38,40,-1,-1,-1,-1,-1,-1,-1,-1,-1,-1],"split_conditions":[1.1E1,1E0,1.1366951E2,3.4E1,4.309348E1,9.529889E1,1.6100949E2,-2.4598359E-1,-2.1768043E-2,5.6E1,7.43833E1,7.082538E1,2.5E1,4.2E1,-2.3023963E-2,2.7E1,2.1227826E-1,2.1E1,1.2691103E-1,2.1623869E1,2.4078116E-1,-1.2039197E-2,-2.4462815E-1,2.1808803E-1,-9.519485E-4,-4.5388424E1,-3.115231E1,-2.8044346E-1,5.1E1,-8.1342964E1,6.1279133E1,1.8765965E-1,-1.7618833E-2,-1.2142523E-1,2.1146111E-2,4.597578E-2,-2.0696557E-1,2.1135981E-1,-1.0104645E-1,1.7538872E-1,-2.5781935E-2],"split_indices":[4,5,1,2,0,1,1,0,0,3,0,1,2,2,0,3,0,3,0,0,0,0,0,0,0,1,0,0,3,0,0,0,0,0,0,0,0,0,0,0,0],"split_type":[0,0,0,0,0,0,0,0,0,0,0,0,0,0,0,0,0,0,0,0,0,0,0,0,0,0,0,0,0,0,0,0,0,0,0,0,0,0,0,0,0],"sum_hessian":[6.611239E1,2.9616632E1,3.6495758E1,3.488047E0,2.6128586E1,2.999156E1,6.504197E0,1.9755875E0,1.5124594E0,2.0180286E1,5.948299E0,2.7602047E1,2.3895135E0,4.4958835E0,2.0083134E0,1.8666027E1,1.5142597E0,4.5864305E0,1.3618681E0,2.5852448E1,1.7495981E0,1.1837332E0,1.2057803E0,3.4034781E0,1.0924054E0,7.720834E0,1.0945192E1,1.8561488E0,2.7302818E0,1.4630958E1,1.122149E1,2.813101E0,4.907733E0,5.163407E0,5.781786E0,1.6900669E0,1.040215E0,1.1778909E0,1.3453067E1,5.6592655E0,5.562225E0],"tree_param":{"num_deleted":"0","num_feature":"6","num_nodes":"41","size_leaf_vector":"1"}},{"base_weights":[-1.1813358E-3,-5.8587443E-2,1.612895E-1,-2.2928378E-2,-1.8710032E-1,2.2185023E-1,-7.953719E-2,-1.4425279E-1,1.3539791E-1,5.243727E-1,1.1798439E-1,-1.2936771E-3,-3.5415593E-1,-2.348062E-1,2.394561E-1,6.515003E-2,1.998124E-1,-2.2987106E-1,3.3666202E-1,-2.7135223E-1,4.0425718E-1,-6.259717E-1,1.0702717E-1,-2.2696368E-1,2.1551949E-1,6.636864E-1,-1.0439436E-2,9.4458334E-2,-1.6679387E-1,9.200292E-2,5.854896E-1,-1.0354972E-2,-2.1362992E-1,-7.368514E-2,2.0908862E-1,-2.3064096E-1,-5.0397664E-2,1.9654305E-1,-1.04340866E-1,1.658017E-1,-9.4044544E-2,-3.3297274E-2,2.560115E-1,6.492155E-2,-1.7506501E-1,1.125354E-1,-6.243777E-2,8.5815825E-2,-1.1301445E-1,2.4072194E-2,2.3104085E-1],"categories":[],"categories_nodes":[],"categories_segments":[],"categories_sizes":[],"default_left":[0,0,0,0,0,0,0,0,0,0,0,0,0,0,0,0,0,0,0,0,0,0,0,0,0,0,0,0,0,0,0,0,0,0,0,0,0,0,0,0,0,0,0,0,0,0,0,0,0,0,0],"id":12,"left_children":[1,3,5,7,-1,9,-1,11,13,15,17,19,21,23,25,-1,-1,27,29,31,33,35,37,-1,39,41,43,45,-1,47,49,-1,-1,-1,-1,-1,-1,-1,-1,-1,-1,-1,-1,-1,-1,-1,-1,-1,-1,-1,-1],"loss_changes":[6.1677796E-1,9.7002196E-1,5.0472504E-1,9.221106E-1,0E0,4.303313E-1,0E0,8.123444E-1,8.613938E-1,1.6961575E-2,1.0625545E0,1.9843216E0,1.4421897E0,1.3591532E0,1.7890402E0,0E0,0E0,6.440983E-1,4.5493937E-1,1.1103814E0,1.5490524E0,3.318963E-1,1.4549257E0,0E0,7.994012E-1,1.0126781E0,1.6295925E0,3.8881108E-1,0E0,5.989732E-1,3.073783E-1,0E0,0E0,0E0,0E0,0E0,0E0,0E0,0E0,0E0,0E0,0E0,0E0,0E0,0E0,0E0,0E0,0E0,0E0,0E0,0E0],"parents":[2147483647,0,0,1,1,2,2,3,3,5,5,7,7,8,8,9,9,10,10,11,11,12,12,13,13,14,14,17,17,18,18,19,19,20,20,21,21,22,22,24,24,25,25,26,26,27,27,29,29,30,30],"right_children":[2,4,6,8,-1,10,-1,12,14,16,18,20,22,24,26,-1,-1,28,30,32,34,36,38,-1,40,42,44,46,-1,48,50,-1,-1,-1,-1,-1,-1,-1,-1,-1,-1,-1,-1,-1,-1,-1,-1,-1,-1,-1,-1],"split_conditions":[5E0,1.656604E2,5.1E1,3.7E1,-1.8710032E-1,-1.2225596E2,-7.953719E-2,2.3E1,-8.631599E1,2.9E1,8.23805E-1,3.9E1,4.2819298E1,4.8E1,4.4E1,6.515003E-2,1.998124E-1,3E1,3.3E1,1.7E1,7E0,3.4E1,6.1279133E1,-2.2696368E-1,2.8E1,1.3E1,4.4E1,-7.589252E1,-1.6679387E-1,1.528716E2,1.8E1,-1.0354972E-2,-2.1362992E-1,-7.368514E-2,2.0908862E-1,-2.3064096E-1,-5.0397664E-2,1.9654305E-1,-1.04340866E-1,1.658017E-1,-9.4044544E-2,-3.3297274E-2,2.560115E-1,6.492155E-2,-1.7506501E-1,1.125354E-1,-6.243777E-2,8.5815825E-2,-1.1301445E-1,2.4072194E-2,2.3104085E-1],"split_indices":[5,1,3,3,0,1,0,3,1,3,1,2,0,3,3,0,0,2,2,4,3,3,0,0,2,2,2,1,0,1,3,0,0,0,0,0,0,0,0,0,0,0,0,0,0,0,0,0,0,0,0],"split_type":[0,0,0,0,0,0,0,0,0,0,0,0,0,0,0,0,0,0,0,0,0,0,0,0,0,0,0,0,0,0,0,0,0,0,0,0,0,0,0,0,0,0,0,0,0,0,0,0,0,0,0],"sum_hessian":[6.4116356E1,4.7849133E1,1.6267221E1,4.5987682E1,1.8614508E0,1.4664279E1,1.6029425E0,2.6086586E1,1.9901094E1,2.713195E0,1.1951084E1,1.6116354E1,9.970232E0,4.090825E0,1.581027E1,1.6557186E0,1.0574765E0,4.593273E0,7.3578105E0,9.872864E0,6.24349E0,6.048187E0,3.9220457E0,1.5801244E0,2.5107007E0,5.2469807E0,1.056329E1,2.6590633E0,1.9342097E0,4.4006386E0,2.957172E0,7.1234117E0,2.749452E0,1.9887855E0,4.254705E0,4.093004E0,1.9551827E0,1.5788987E0,2.343147E0,1.5060748E0,1.0046259E0,1.113657E0,4.1333237E0,8.013747E0,2.5495424E0,1.2551471E0,1.4039162E0,3.3877978E0,1.012841E0,1.1754228E0,1.781749E0],"tree_param":{"num_deleted":"0","num_feature":"6","num_nodes":"51","size_leaf_vector":"1"}},{"base_weights":[-6.3596414E-3,3.2413027E-1,-3.5441592E-2,-8.7782286E-2,5.8720756E-1,-1.0639152E-2,-4.889442E-1,5.291384E-2,2.0836183E-1,5.2605305E-2,-1.4656146E-1,-2.1560869E-1,-4.975002E-3,4.169616E-3,4.5579764E-1,-5.8852696E-1,-2.783795E-2,4.9374092E-1,-4.5950454E-2,-2.2886693E-2,2.7705833E-1,-2.057031E-1,-5.2477505E-2,-1.829837E-1,6.540997E-2,8.098455E-3,2.1831469E-1,-1.6999653E-1,3.565246E-3,-7.922728E-2,6.866249E-2,-1.183059E-1,7.2442934E-2],"categories":[],"categories_nodes":[],"categories_segments":[],"categories_sizes":[],"default_left":[0,0,0,0,0,0,0,0,0,0,0,0,0,0,0,0,0,0,0,0,0,0,0,0,0,0,0,0,0,0,0,0,0],"id":13,"left_children":[1,3,5,-1,7,9,11,-1,-1,13,15,-1,-1,17,19,21,23,25,27,29,-1,-1,-1,-1,31,-1,-1,-1,-1,-1,-1,-1,-1],"loss_changes":[6.179258E-1,1.0158067E0,6.5724355E-1,0E0,5.2948713E-2,4.9652255E-1,3.1710196E-1,0E0,0E0,7.7031606E-1,9.4493365E-1,0E0,0E0,9.136559E-1,9.685598E-1,3.393972E-2,8.807534E-1,3.5790998E-1,1.0262225E0,2.4669662E-1,0E0,0E0,0E0,0E0,1.2491745E0,0E0,0E0,0E0,0E0,0E0,0E0,0E0,0E0],"parents":[2147483647,0,0,1,1,2,2,4,4,5,5,6,6,9,9,10,10,13,13,14,14,15,15,16,16,17,17,18,18,19,19,24,24],"right_children":[2,4,6,-1,8,10,12,-1,-1,14,16,-1,-1,18,20,22,24,26,28,30,-1,-1,-1,-1,32,-1,-1,-1,-1,-1,-1,-1,-1],"split_conditions":[4E0,1.1E1,1.6755096E2,-8.7782286E-2,2.2E1,3.2042908E1,3.4E1,5.291384E-2,2.0836183E-1,2.4497288E1,7E0,-2.1560869E-1,-4.975002E-3,1E1,3.6E1,4.7E1,1E1,1.7E1,1.5E1,5E0,2.7705833E-1,-2.057031E-1,-5.2477505E-2,-1.829837E-1,1.8E1,8.098455E-3,2.1831469E-1,-1.6999653E-1,3.565246E-3,-7.922728E-2,6.866249E-2,-1.183059E-1,7.2442934E-2],"split_indices":[2,4,1,0,3,0,2,0,0,0,4,0,0,2,2,3,2,3,2,4,0,0,0,0,3,0,0,0,0,0,0,0,0],"split_type":[0,0,0,0,0,0,0,0,0,0,0,0,0,0,0,0,0,0,0,0,0,0,0,0,0,0,0,0,0,0,0,0,0],"sum_hessian":[6.2096424E1,4.201766E0,5.7894657E1,1.222824E0,2.9789422E0,5.5862926E1,2.031731E0,1.1645954E0,1.8143468E0,3.854225E1,1.7320679E1,1.0160419E0,1.0156889E0,3.53107E1,3.2315497E0,2.829676E0,1.4491002E1,2.4572449E0,3.2853455E1,2.0671034E0,1.1644464E0,1.7587494E0,1.0709265E0,1.2357315E0,1.3255271E1,1.1929183E0,1.2643265E0,2.4047568E0,3.0448698E1,1.0306759E0,1.0364274E0,3.327185E0,9.928085E0],"tree_param":{"num_deleted":"0","num_feature":"6","num_nodes":"33","size_leaf_vector":"1"}},{"base_weights":[-8.436407E-3,9.610531E-3,-1.4922348E-1,-2.3903009E-2,5.46594E-1,-9.247635E-2,1.7288838E-1,2.1548249E-1,6.021456E-2,4.049303E-2,-2.19789E-1,2.308539E-1,-6.24228E-2,-1.04666665E-1,3.8040224E-1,-2.5316253E-2,-5.247993E-1,1.2173058E-1,4.966966E-1,-1.11268595E-1,6.5832615E-2,4.126829E-2,2.3007038E-1,-5.0038744E-2,2.3189873E-1,4.398828E-2,-1.9717179E-1,-7.9121985E-2,8.056143E-2,1.2946812E-2,1.966396E-1],"categories":[],"categories_nodes":[],"categories_segments":[],"categories_sizes":[],"default_left":[0,0,0,0,0,0,0,0,0,0,0,0,0,0,0,0,0,0,0,0,0,0,0,0,0,0,0,0,0,0,0],"id":14,"left_children":[1,3,-1,5,7,9,11,-1,-1,13,15,17,-1,19,21,23,25,27,29,-1,-1,-1,-1,-1,-1,-1,-1,-1,-1,-1,-1],"loss_changes":[5.5395794E-1,1.1108196E0,0E0,8.037232E-1,7.110214E-2,7.527619E-1,3.888386E-1,0E0,0E0,1.1419677E0,1.3274685E0,3.418699E-1,0E0,1.499692E0,5.42159E-1,1.8065659E0,8.744483E-1,7.0222235E-1,2.3897213E-1,0E0,0E0,0E0,0E0,0E0,0E0,0E0,0E0,0E0,0E0,0E0,0E0],"parents":[2147483647,0,0,1,1,3,3,4,4,5,5,6,6,9,9,10,10,11,11,13,13,14,14,15,15,16,16,17,17,18,18],"right_children":[2,4,-1,6,8,10,12,-1,-1,14,16,18,-1,20,22,24,26,28,30,-1,-1,-1,-1,-1,-1,-1,-1,-1,-1,-1,-1],"split_conditions":[8.7135025E1,8.099301E1,-1.4922348E-1,5E0,2.4E1,-1.1128978E1,5.1E1,2.1548249E-1,6.021456E-2,-3.656353E1,3.871615E1,1.8E1,-6.24228E-2,3E0,1.9E1,2.8323147E1,7E0,1.4E1,-1.1692016E2,-1.11268595E-1,6.5832615E-2,4.126829E-2,2.3007038E-1,-5.0038744E-2,2.3189873E-1,4.398828E-2,-1.9717179E-1,-7.9121985E-2,8.056143E-2,1.2946812E-2,1.966396E-1],"split_indices":[0,0,0,5,3,0,3,0,0,0,1,4,0,5,4,1,2,3,1,0,0,0,0,0,0,0,0,0,0,0,0],"split_type":[0,0,0,0,0,0,0,0,0,0,0,0,0,0,0,0,0,0,0,0,0,0,0,0,0,0,0,0,0,0,0],"sum_hessian":[6.1233253E1,5.999917E1,1.2340846E0,5.7373905E1,2.6252618E0,4.294092E1,1.4432986E1,1.0349073E0,1.5903543E0,2.13374E1,2.160352E1,1.2868944E1,1.5640423E0,1.5437026E1,5.900374E0,1.3853568E1,7.749952E0,1.0157422E1,2.7115216E0,8.396027E0,7.0409994E0,4.4563313E0,1.4440429E0,1.2439978E1,1.4135904E0,1.2591839E0,6.490768E0,2.5818338E0,7.5755887E0,1.0328596E0,1.6786621E0],"tree_param":{"num_deleted":"0","num_feature":"6","num_nodes":"31","size_leaf_vector":"1"}},{"base_weights":[1.7210206E-3,3.4277254E-1,-2.1837704E-2,2.0075661E-1,-7.634052E-2,-3.671176E-1,2.6440075E-2,-6.254283E-1,1.0722518E-1,2.591653E-1,-3.4495633E-2,-1.8581083E-1,-2.466398E-1,-3.322983E-1,7.1025235E-3,-1.1718563E-1,3.3262074E-2,-1.9715993E-1,5.2941274E-2,4.9819086E-2,-3.5830033E-1,9.556236E-2,-7.402039E-2,1.7788513E-3,2.3957E-1,-2.3222987E-1,3.5278E-2],"categories":[],"categories_nodes":[],"categories_segments":[],"categories_sizes":[],"default_left":[0,0,0,0,0,0,0,0,0,0,0,0,0,0,0,0,0,0,0,0,0,0,0,0,0,0,0],"id":15,"left_children":[1,3,5,-1,-1,7,9,11,-1,-1,13,15,-1,17,19,-1,-1,-1,21,23,25,-1,-1,-1,-1,-1,-1],"loss_changes":[4.9730986E-1,9.498781E-1,9.759352E-1,0E0,0E0,1.5668789E0,2.6724892E0,3.3624482E-1,0E0,0E0,6.122942E-1,2.2803533E-1,0E0,7.927198E-1,7.0744914E-1,0E0,0E0,0E0,3.7276697E-1,1.3240156E0,1.0302045E0,0E0,0E0,0E0,0E0,0E0,0E0],"parents":[2147483647,0,0,1,1,2,2,5,5,6,6,7,7,10,10,11,11,13,13,14,14,18,18,19,19,20,20],"right_children":[2,4,6,-1,-1,8,10,12,-1,-1,14,16,-1,18,20,-1,-1,-1,22,24,26,-1,-1,-1,-1,-1,-1],"split_conditions":[-8.351661E1,4.1E1,-6.803312E1,2.0075661E-1,-7.634052E-2,5.1E1,-6.271483E1,2E1,1.0722518E-1,2.591653E-1,-4.6460003E1,4E0,-2.466398E-1,-2.4880491E1,5.4E1,-1.1718563E-1,3.3262074E-2,-1.9715993E-1,7.83352E1,5.3E1,4.7552338E1,9.556236E-2,-7.402039E-2,1.7788513E-3,2.3957E-1,-2.3222987E-1,3.5278E-2],"split_indices":[0,3,0,0,0,3,0,2,0,0,0,5,0,1,3,0,0,0,1,3,1,0,0,0,0,0,0],"split_type":[0,0,0,0,0,0,0,0,0,0,0,0,0,0,0,0,0,0,0,0,0,0,0,0,0,0,0],"sum_hessian":[5.9963337E1,2.9989448E0,5.6964394E1,1.8612369E0,1.1377077E0,6.177683E0,5.078671E1,4.6549053E0,1.5227773E0,2.5510097E0,4.82357E1,2.0400922E0,2.614813E0,5.0554266E0,4.3180275E1,1.0196153E0,1.0204769E0,2.3595178E0,2.6959088E0,3.9433994E1,3.7462788E0,1.3958383E0,1.3000706E0,3.820258E1,1.231414E0,1.6649504E0,2.0813284E0],"tree_param":{"num_deleted":"0","num_feature":"6","num_nodes":"27","size_leaf_vector":"1"}},{"base_weights":[5.0810387E-4,1.643432E-2,-1.2900047E-1,-1.2337362E-2,4.6270943E-1,-6.5807365E-2,1.4117879E-1,2.4956481E-1,-7.1194425E-2,-1.04122415E-1,3.616316E-1,4.0463614E-1,4.925355E-2,-6.8098016E-2,-2.0484902E-1,1.6188586E-1,9.7357965E-4,6.949495E-3,1.6146375E-1,-1.613872E-1,2.9504904E-1,-3.179085E-2,1.3072722E-1,4.1008227E-2,-1.2616417E-1,8.622103E-3,1.876462E-1],"categories":[],"categories_nodes":[],"categories_segments":[],"categories_sizes":[],"default_left":[0,0,0,0,0,0,0,0,0,0,0,0,0,0,0,0,0,0,0,0,0,0,0,0,0,0,0],"id":16,"left_children":[1,3,-1,5,7,9,11,-1,-1,13,15,17,19,21,-1,-1,-1,-1,-1,23,25,-1,-1,-1,-1,-1,-1],"loss_changes":[4.185668E-1,7.6120836E-1,0E0,4.7101533E-1,1.1250848E0,7.320674E-1,3.39681E-1,0E0,0E0,7.8092515E-1,2.3500875E-1,1.7618233E-1,6.7649287E-1,7.803306E-1,0E0,0E0,0E0,0E0,0E0,6.127177E-1,5.064099E-1,0E0,0E0,0E0,0E0,0E0,0E0],"parents":[2147483647,0,0,1,1,3,3,4,4,5,5,6,6,9,9,10,10,11,11,12,12,13,13,19,19,20,20],"right_children":[2,4,-1,6,8,10,12,-1,-1,14,16,18,20,22,-1,-1,-1,-1,-1,24,26,-1,-1,-1,-1,-1,-1],"split_conditions":[8.7135025E1,8.099301E1,-1.2900047E-1,5E0,4E0,5.7E1,1.4E1,2.4956481E-1,-7.1194425E-2,5.5E1,2.4E1,5E0,3.6E1,5.3E1,-2.0484902E-1,1.6188586E-1,9.7357965E-4,6.949495E-3,1.6146375E-1,2.8E1,4.4257458E1,-3.179085E-2,1.3072722E-1,4.1008227E-2,-1.2616417E-1,8.622103E-3,1.876462E-1],"split_indices":[0,0,0,5,5,3,2,0,0,3,2,4,2,3,0,0,0,0,0,3,1,0,0,0,0,0,0],"split_type":[0,0,0,0,0,0,0,0,0,0,0,0,0,0,0,0,0,0,0,0,0,0,0,0,0,0,0],"sum_hessian":[5.9017014E1,5.7839146E1,1.1778677E0,5.5249527E1,2.5896223E0,4.1400852E1,1.3848673E1,1.572151E0,1.0174714E0,3.868921E1,2.7116444E0,2.702247E0,1.1146426E1,3.7474125E1,1.215082E0,1.4739394E0,1.2377051E0,1.0051453E0,1.6971016E0,6.187391E0,4.959035E0,3.5588833E1,1.8852944E0,3.0973837E0,3.090007E0,3.347874E0,1.6111612E0],"tree_param":{"num_deleted":"0","num_feature":"6","num_nodes":"27","size_leaf_vector":"1"}},{"base_weights":[7.423226E-3,3.010545E-1,-1.3090486E-2,1.5353532E-1,-3.555891E-2,8.591891E-3,-1.3239793E-1,2.5351262E-1,-1.4848741E-2,-7.896097E-2,1.6375175E-1,-4.7229335E-1,3.6250915E-2,-1.8961704E-3,-1.8653698E-1,6.2911105E-1,-3.1263858E-2,-1.628667E-2,2.4884467E-1,-1.3532248E-1,3.846958E-3],"categories":[],"categories_nodes":[],"categories_segments":[],"categories_sizes":[],"default_left":[0,0,0,0,0,0,0,0,0,0,0,0,0,0,0,0,0,0,0,0,0],"id":17,"left_children":[1,3,5,-1,-1,7,-1,9,11,-1,-1,13,15,-1,-1,17,19,-1,-1,-1,-1],"loss_changes":[3.5817134E-1,4.0389195E-1,5.230792E-1,0E0,0E0,3.1500196E-1,0E0,8.672887E-1,1.1957393E0,0E0,0E0,3.539729E-1,1.8722633E0,0E0,0E0,6.994735E-1,7.924687E-1,0E0,0E0,0E0,0E0],"parents":[2147483647,0,0,1,1,2,2,5,5,7,7,8,8,11,11,12,12,15,15,16,16],"right_children":[2,4,6,-1,-1,8,-1,10,12,-1,-1,14,16,-1,-1,18,20,-1,-1,-1,-1],"split_conditions":[3E0,5.463791E0,1.6755096E2,1.5353532E-1,-3.555891E-2,-8.1342964E1,-1.3239793E-1,3E0,-6.803312E1,-7.896097E-2,1.6375175E-1,8E0,-5.7252937E1,-1.8961704E-3,-1.8653698E-1,3.3E1,-4.6460003E1,-1.628667E-2,2.4884467E-1,-1.3532248E-1,3.846958E-3],"split_indices":[2,0,1,0,0,0,0,5,0,0,0,4,0,0,0,2,0,0,0,0,0],"split_type":[0,0,0,0,0,0,0,0,0,0,0,0,0,0,0,0,0,0,0,0,0],"sum_hessian":[5.7808384E1,2.8818655E0,5.4926517E1,1.7721089E0,1.1097566E0,5.321222E1,1.7142967E0,3.7906203E0,4.94216E1,1.4056398E0,2.3849807E0,4.137758E0,4.528384E1,1.258223E0,2.8795347E0,3.7792652E0,4.1504578E1,1.02214E0,2.7571251E0,3.06711E0,3.8437466E1],"tree_param":{"num_deleted":"0","num_feature":"6","num_nodes":"21","size_leaf_vector":"1"}},{"base_weights":[4.5434344E-3,-8.4918775E-2,7.658235E-2,4.052472E-3,-3.7601244E-1,2.4721783E-1,-7.777223E-2,-6.460716E-2,1.4562364E-1,-5.953349E-1,8.6403385E-2,4.658675E-1,-1.4564587E-2,-1.8604612E-1,3.7553255E-2,1.4343789E-1,-2.2435787E-1,-2.1491985E-1,-4.384976E-2,9.429087E-2,2.7472538E-1,2.4600594E-1,-3.7156412E-1,-7.205318E-2,4.0451285E-1,-2.3004578E-1,3.4322935E-1,9.178429E-2,-3.0694577E-1,-2.2856492E-1,1.570207E-1,-1.1379276E-1,1.8404682E-1,-2.2669561E-1,3.81911E-2,-3.3889952E-1,2.3140636E-1,1.8740834E-1,1.6711984E-2,6.4437844E-2,-2.1539648E-1,-8.350392E-2,1.600689E-1,4.0038642E-3,-1.4367832E-1,6.193212E-2,-2.1951383E-1,-1.14091985E-1,8.20109E-2,-2.4171345E-1,6.470565E-4,1.2470231E-1,-4.6707377E-2],"categories":[],"categories_nodes":[],"categories_segments":[],"categories_sizes":[],"default_left":[0,0,0,0,0,0,0,0,0,0,0,0,0,0,0,0,0,0,0,0,0,0,0,0,0,0,0,0,0,0,0,0,0,0,0,0,0,0,0,0,0,0,0,0,0,0,0,0,0,0,0,0,0],"id":18,"left_children":[1,3,5,7,9,11,13,15,-1,17,-1,19,21,-1,23,25,27,-1,-1,29,-1,31,33,35,37,39,41,-1,43,45,-1,47,-1,-1,-1,49,51,-1,-1,-1,-1,-1,-1,-1,-1,-1,-1,-1,-1,-1,-1,-1,-1],"loss_changes":[3.821934E-1,6.8724185E-1,8.8357866E-1,7.3426616E-1,1.0756712E0,9.126383E-1,1.1486531E0,6.8012375E-1,0E0,1.6681063E-1,0E0,1.3602569E0,8.516158E-1,0E0,6.6381735E-1,7.5633633E-1,5.9396994E-1,0E0,0E0,9.306636E-1,0E0,7.739856E-1,8.3320975E-1,1.1310586E0,2.5553483E-1,9.7087395E-1,8.9567167E-1,0E0,5.7807887E-1,1.0345737E0,0E0,4.6867526E-1,0E0,0E0,0E0,1.1675656E0,5.4095405E-1,0E0,0E0,0E0,0E0,0E0,0E0,0E0,0E0,0E0,0E0,0E0,0E0,0E0,0E0,0E0,0E0],"parents":[2147483647,0,0,1,1,2,2,3,3,4,4,5,5,6,6,7,7,9,9,11,11,12,12,14,14,15,15,16,16,19,19,21,21,22,22,23,23,24,24,25,25,26,26,28,28,29,29,31,31,35,35,36,36],"right_children":[2,4,6,8,10,12,14,16,-1,18,-1,20,22,-1,24,26,28,-1,-1,30,-1,32,34,36,38,40,42,-1,44,46,-1,48,-1,-1,-1,50,52,-1,-1,-1,-1,-1,-1,-1,-1,-1,-1,-1,-1,-1,-1,-1,-1],"split_conditions":[1.1E1,4.309348E1,1.7E1,5.6E1,7.43833E1,2.8E1,1.8E1,2.7E1,1.4562364E-1,4.2E1,8.6403385E-2,1.9E1,7.90204E-1,-1.8604612E-1,1.117992E2,2.1E1,-1.2531503E2,-2.1491985E-1,-4.384976E-2,4.2669743E1,2.7472538E-1,4.5E1,-2.0325823E1,3.5E1,-1.5728069E1,1.6E1,2E0,9.178429E-2,3E0,-1.8862942E1,1.570207E-1,-1.0271957E2,1.8404682E-1,-2.2669561E-1,3.81911E-2,3E0,4.065825E1,1.8740834E-1,1.6711984E-2,6.4437844E-2,-2.1539648E-1,-8.350392E-2,1.600689E-1,4.0038642E-3,-1.4367832E-1,6.193212E-2,-2.1951383E-1,-1.14091985E-1,8.20109E-2,-2.4171345E-1,6.470565E-4,1.2470231E-1,-4.6707377E-2],"split_indices":[4,0,4,3,0,2,4,3,0,2,0,2,1,0,1,2,1,0,0,1,0,2,0,3,0,2,4,0,4,1,0,1,0,0,0,5,1,0,0,0,0,0,0,0,0,0,0,0,0,0,0,0,0],"split_type":[0,0,0,0,0,0,0,0,0,0,0,0,0,0,0,0,0,0,0,0,0,0,0,0,0,0,0,0,0,0,0,0,0,0,0,0,0,0,0,0,0,0,0,0,0,0,0,0,0,0,0,0,0],"sum_hessian":[5.729388E1,2.5476662E1,3.181722E1,2.0267948E1,5.208713E0,1.4825901E1,1.699132E1,1.8495579E1,1.7723695E0,3.9932225E0,1.2154906E0,7.6536837E0,7.172218E0,2.211781E0,1.4779538E1,8.077839E0,1.041774E1,2.6768E0,1.3164223E0,4.8540897E0,2.799594E0,4.3257794E0,2.8464382E0,1.1999176E1,2.780362E0,2.7624235E0,5.315415E0,1.0393642E0,9.378376E0,3.036691E0,1.8173988E0,2.5345638E0,1.7912159E0,1.3174071E0,1.5290312E0,6.322615E0,5.6765614E0,1.2195679E0,1.560794E0,1.7378714E0,1.0245521E0,1.1376755E0,4.177739E0,3.598702E0,5.779674E0,1.9448977E0,1.0917933E0,1.5116714E0,1.0228925E0,2.0940456E0,4.2285695E0,3.7958298E0,1.8807316E0],"tree_param":{"num_deleted":"0","num_feature":"6","num_nodes":"53","size_leaf_vector":"1"}},{"base_weights":[4.6560183E-4,-3.0121036E-2,1.5219441E-1,2.7596572E-2,-2.7197123E-1,2.3320076E-1,-6.1350673E-2,-2.2013048E-2,4.2740384E-1,5.7515644E-2,-4.1101012E-1,1.3455465E-1,-1.5444893E-1,3.739011E-2,-6.381413E-1,-8.958548E-2,2.1999171E-1,1.3473041E-1,-1.3314097E-1,-2.3838605E-1,1.1327716E-2,2.897943E-1,-9.459707E-2,-1.185904E-2,1.8090844E-1,-2.381643E-1,-4.6742186E-2,4.1390607E-1,-1.8299598E-1,6.437064E-3,2.2187355E-1,-3.3052392E-2,4.877171E-2,3.31976E-2,1.570913E-1,-1.4212123E-1,1.8097693E-1],"categories":[],"categories_nodes":[],"categories_segments":[],"categories_sizes":[],"default_left":[0,0,0,0,0,0,0,0,0,0,0,0,0,0,0,0,0,0,0,0,0,0,0,0,0,0,0,0,0,0,0,0,0,0,0,0,0],"id":19,"left_children":[1,3,5,7,9,-1,11,13,15,17,19,21,-1,23,25,-1,-1,-1,-1,-1,27,29,-1,31,-1,-1,-1,33,-1,35,-1,-1,-1,-1,-1,-1,-1],"loss_changes":[2.6620126E-1,6.74044E-1,1.3322769E0,7.920227E-1,4.4932127E-1,0E0,7.888161E-1,1.3434012E0,1.1971979E0,9.128437E-1,1.0875713E0,5.4175556E-1,0E0,9.494871E-1,1.1861706E-1,0E0,0E0,0E0,0E0,0E0,1.2916694E0,6.726954E-1,0E0,5.6838244E-1,0E0,0E0,0E0,4.5771062E-2,0E0,1.5094256E0,0E0,0E0,0E0,0E0,0E0,0E0,0E0],"parents":[2147483647,0,0,1,1,2,2,3,3,4,4,6,6,7,7,8,8,9,9,10,10,11,11,13,13,14,14,20,20,21,21,23,23,27,27,29,29],"right_children":[2,4,6,8,10,-1,12,14,16,18,20,22,-1,24,26,-1,-1,-1,-1,-1,28,30,-1,32,-1,-1,-1,34,-1,36,-1,-1,-1,-1,-1,-1,-1],"split_conditions":[5.2E1,4.2E1,-9.8919464E1,3.7E1,1.3E1,2.3320076E-1,5.8E1,3.4E1,-1.02631454E2,3E0,3.5E1,4.016691E1,-1.5444893E-1,3.3E1,8E0,-8.958548E-2,2.1999171E-1,1.3473041E-1,-1.3314097E-1,-2.3838605E-1,5.4E1,1.0879314E1,-9.459707E-2,6.97256E1,1.8090844E-1,-2.381643E-1,-4.6742186E-2,4.6E1,-1.8299598E-1,1.7E1,2.2187355E-1,-3.3052392E-2,4.877171E-2,3.31976E-2,1.570913E-1,-1.4212123E-1,1.8097693E-1],"split_indices":[2,2,1,2,3,0,2,2,1,5,3,0,0,2,4,0,0,0,0,0,3,0,0,1,0,0,0,3,0,4,0,0,0,0,0,0,0],"split_type":[0,0,0,0,0,0,0,0,0,0,0,0,0,0,0,0,0,0,0,0,0,0,0,0,0,0,0,0,0,0,0,0,0,0,0,0,0],"sum_hessian":[5.5372356E1,4.6749683E1,8.622672E0,3.845765E1,8.292033E0,1.5232612E0,7.099411E0,3.505307E1,3.4045787E0,2.6347287E0,5.657305E0,5.448789E0,1.6506217E0,3.2827377E1,2.2256923E0,1.0163062E0,2.3882725E0,1.5377419E0,1.0969869E0,2.5026577E0,3.154647E0,4.3154826E0,1.133307E0,3.1098701E1,1.7286774E0,1.194188E0,1.0315043E0,2.116858E0,1.0377889E0,3.2698426E0,1.0456399E0,2.0124315E1,1.0974385E1,1.0961246E0,1.0207335E0,1.926276E0,1.3435667E0],"tree_param":{"num_deleted":"0","num_feature":"6","num_nodes":"37","size_leaf_vector":"1"}},{"base_weights":[5.1425013E-4,-4.4249047E-2,1.2949078E-1,2.0096201E-2,-2.9070994E-1,3.352085E-1,-4.083495E-2,-2.913687E-2,1.7352366E-1,1.3264662E-1,-4.762615E-1,5.877412E-1,3.953286E-2,-4.3715665E-1,1.5131071E-1,-3.583481E-1,3.4362845E-2,-2.1441652E-2,-6.906162E-1,5.0686724E-2,2.185971E-1,-6.589849E-2,1.0532824E-1,-1.9276814E-1,-2.418703E-3,1.4938696E-1,-7.03592E-2,-7.383755E-2,-1.86688E-1,1.7946085E-1,-2.9098608E-2,5.4746334E-2,-6.4495E-2,-6.0408015E-2,-2.3987426E-1,-1.5492819E-1,9.845697E-2,-9.2637636E-2,7.821234E-2,-6.815432E-2,4.3641403E-2],"categories":[],"categories_nodes":[],"categories_segments":[],"categories_sizes":[],"default_left":[0,0,0,0,0,0,0,0,0,0,0,0,0,0,0,0,0,0,0,0,0,0,0,0,0,0,0,0,0,0,0,0,0,0,0,0,0,0,0,0,0],"id":20,"left_children":[1,3,5,7,9,11,13,15,-1,-1,17,19,21,23,25,27,29,31,33,-1,-1,-1,-1,-1,-1,-1,35,37,-1,-1,39,-1,-1,-1,-1,-1,-1,-1,-1,-1,-1],"loss_changes":[3.2352552E-1,6.6568565E-1,5.19536E-1,9.494894E-1,1.3907386E0,4.7312438E-1,7.354515E-1,6.840253E-1,0E0,0E0,7.0729005E-1,8.4218144E-2,4.1098905E-1,2.7042055E-1,5.4696435E-1,3.507865E-1,1.0138956E0,1.7360753E-1,1.0566497E-1,0E0,0E0,0E0,0E0,0E0,0E0,0E0,1.0476867E0,3.6953747E-1,0E0,0E0,9.315923E-1,0E0,0E0,0E0,0E0,0E0,0E0,0E0,0E0,0E0,0E0],"parents":[2147483647,0,0,1,1,2,2,3,3,4,4,5,5,6,6,7,7,10,10,11,11,12,12,13,13,14,14,15,15,16,16,17,17,18,18,26,26,27,27,30,30],"right_children":[2,4,6,8,10,12,14,16,-1,-1,18,20,22,24,26,28,30,32,34,-1,-1,-1,-1,-1,-1,-1,36,38,-1,-1,40,-1,-1,-1,-1,-1,-1,-1,-1,-1,-1],"split_conditions":[5E0,4E0,2.8E1,8.099301E1,-7.61451E1,3.1E1,3.5E1,-6.803312E1,1.7352366E-1,1.3264662E-1,1.6E1,1.4E1,6.2106644E1,6.674837E0,-8.631599E1,2.6E1,-6.277557E1,3.2E1,2.1E1,5.0686724E-2,2.185971E-1,-6.589849E-2,1.0532824E-1,-1.9276814E-1,-2.418703E-3,1.4938696E-1,-1.5121527E1,7.082538E1,-1.86688E-1,1.7946085E-1,3.1E1,5.4746334E-2,-6.4495E-2,-6.0408015E-2,-2.3987426E-1,-1.5492819E-1,9.845697E-2,-9.2637636E-2,7.821234E-2,-6.815432E-2,4.3641403E-2],"split_indices":[5,5,3,0,0,2,3,0,0,0,2,3,1,0,1,2,0,3,3,0,0,0,0,0,0,0,1,1,0,0,3,0,0,0,0,0,0,0,0,0,0],"split_type":[0,0,0,0,0,0,0,0,0,0,0,0,0,0,0,0,0,0,0,0,0,0,0,0,0,0,0,0,0,0,0,0,0,0,0,0,0,0,0,0,0],"sum_hessian":[5.4044662E1,4.0607964E1,1.3436699E1,3.2929337E1,7.678628E0,5.647573E0,7.789126E0,3.1131895E1,1.7974404E0,1.2719468E0,6.406681E0,2.5132492E0,3.1343238E0,2.1269417E0,5.6621842E0,4.2830944E0,2.68488E1,2.4046023E0,4.0020785E0,1.1863972E0,1.326852E0,1.8719628E0,1.2623609E0,1.1019615E0,1.0249801E0,1.722369E0,3.939815E0,2.6771257E0,1.6059686E0,1.8637332E0,2.4985067E1,1.19869E0,1.2059124E0,1.2477157E0,2.7543628E0,1.7195145E0,2.2203007E0,1.6178635E0,1.0592622E0,1.1563137E1,1.342193E1],"tree_param":{"num_deleted":"0","num_feature":"6","num_nodes":"41","size_leaf_vector":"1"}},{"base_weights":[2.5742492E-3,-1.1525105E-1,4.9627766E-2,3.358575E-2,-1.5084296E-1,1.3378997E-1,-7.1728736E-2,-1.3738737E-1,1.2523696E-1,2.9286405E-1,-3.4338523E-2,-1.5355605E-1,1.9684236E-2,-4.36912E-2,3.8371447E-1,-1.7064881E-1,4.8588204E-1,-3.9499512E-1,1.2722702E-1,-7.890478E-2,3.4636605E-1,1.5212615E-1,-1.4774388E-1,5.044144E-1,2.718105E-3,2.9738488E-2,5.710487E-1,-2.0099168E-1,1.3762725E-2,4.227304E-1,-1.1924462E-1,-2.9462418E-1,1.6402572E-1,1.6840312E-1,7.4285273E-3,9.300814E-2,-6.747405E-2,2.6468981E-2,2.05896E-1,-4.5551047E-2,2.3838104E-1,1.9242594E-1,-4.7795136E-2,-1.6106896E-1,1.0590566E-1,-2.1869352E-1,-4.243945E-4,1.340624E-1,-3.0990839E-2],"categories":[],"categories_nodes":[],"categories_segments":[],"categories_sizes":[],"default_left":[0,0,0,0,0,0,0,0,0,0,0,0,0,0,0,0,0,0,0,0,0,0,0,0,0,0,0,0,0,0,0,0,0,0,0,0,0,0,0,0,0,0,0,0,0,0,0,0,0],"id":21,"left_children":[1,3,5,7,-1,9,11,-1,13,15,17,-1,19,21,23,-1,25,27,29,31,33,35,-1,37,-1,-1,39,-1,-1,41,43,45,47,-1,-1,-1,-1,-1,-1,-1,-1,-1,-1,-1,-1,-1,-1,-1,-1],"loss_changes":[3.0311143E-1,9.1727555E-1,4.0825433E-1,6.076659E-1,0E0,6.358049E-1,6.793532E-1,0E0,5.006071E-1,2.2933972E0,7.6521134E-1,0E0,5.019714E-1,7.427332E-1,1.981039E-1,0E0,2.8750563E-1,5.20462E-1,7.2266835E-1,6.8426454E-1,2.3513365E-1,4.3019342E-1,0E0,1.9469142E-1,0E0,0E0,1.4703224E0,0E0,0E0,6.644905E-1,1.3360151E0,8.6310583E-1,5.263058E-1,0E0,0E0,0E0,0E0,0E0,0E0,0E0,0E0,0E0,0E0,0E0,0E0,0E0,0E0,0E0,0E0],"parents":[2147483647,0,0,1,1,2,2,3,3,5,5,6,6,8,8,9,9,10,10,12,12,13,13,14,14,16,16,17,17,18,18,19,19,20,20,21,21,23,23,26,26,29,29,30,30,31,31,32,32],"right_children":[2,4,6,8,-1,10,12,-1,14,16,18,-1,20,22,24,-1,26,28,30,32,34,36,-1,38,-1,-1,40,-1,-1,42,44,46,48,-1,-1,-1,-1,-1,-1,-1,-1,-1,-1,-1,-1,-1,-1,-1,-1],"split_conditions":[7E0,2.555487E1,1.7E1,1E0,-1.5084296E-1,-1.8862942E1,1.8E1,-1.3738737E-1,-2.2989101E1,1E0,3.3462307E1,-1.5355605E-1,1.117992E2,-4.1607586E1,5E0,-1.7064881E-1,1.2E1,3E1,2.4E1,3.5E1,-1.5728069E1,4E0,-1.4774388E-1,2E0,2.718105E-3,2.9738488E-2,-4.6460003E1,-2.0099168E-1,1.3762725E-2,1.528716E2,7.656186E0,3E0,3E0,1.6840312E-1,7.4285273E-3,9.300814E-2,-6.747405E-2,2.6468981E-2,2.05896E-1,-4.5551047E-2,2.3838104E-1,1.9242594E-1,-4.7795136E-2,-1.6106896E-1,1.0590566E-1,-2.1869352E-1,-4.243945E-4,1.340624E-1,-3.0990839E-2],"split_indices":[4,0,4,5,0,1,4,0,0,5,1,0,1,0,4,0,3,2,2,3,0,4,0,4,0,0,0,0,0,1,0,5,5,0,0,0,0,0,0,0,0,0,0,0,0,0,0,0,0],"split_type":[0,0,0,0,0,0,0,0,0,0,0,0,0,0,0,0,0,0,0,0,0,0,0,0,0,0,0,0,0,0,0,0,0,0,0,0,0,0,0,0,0,0,0,0,0,0,0,0,0],"sum_hessian":[5.264118E1,1.4609244E1,3.8031933E1,1.1215444E1,3.3938015E0,2.2396935E1,1.5634999E1,1.1344446E0,1.0080998E1,1.1127134E1,1.1269799E1,1.8978925E0,1.3737107E1,6.599112E0,3.4818869E0,1.6800101E0,9.4471245E0,3.0396676E0,8.230131E0,1.1135117E1,2.6019907E0,5.0546665E0,1.5444453E0,2.3715222E0,1.1103647E0,2.0954266E0,7.351698E0,1.5520048E0,1.4876627E0,3.4175658E0,4.8125653E0,5.785166E0,5.349951E0,1.1127322E0,1.4892586E0,3.6879275E0,1.3667393E0,1.1729482E0,1.1985738E0,1.8122913E0,5.539407E0,2.410047E0,1.007519E0,2.481321E0,2.3312445E0,1.73249E0,4.0526757E0,2.2731729E0,3.076778E0],"tree_param":{"num_deleted":"0","num_feature":"6","num_nodes":"49","size_leaf_vector":"1"}},{"base_weights":[-5.3164014E-3,4.1097257E-2,-1.4033505E-1,4.226136E-3,1.4410338E-1,-4.6065214E-1,2.3952065E-2,3.4591157E-2,-1.23943195E-1,2.3988858E-2,-2.1162827E-1,2.0521595E-1,-3.0868417E-1,-7.255685E-2,1.4422332E-1,2.1360011E-1,-6.1599286E-3,-1.662143E-1,1.4808307E-2,2.509085E-1,-2.409528E-1,-9.466017E-2,2.778834E-1,1.267295E-1,-2.3534253E-1,-1.14534255E-2,1.9891201E-1,-1.9128512E-1,-3.2007437E-2,9.43103E-2,-1.0546874E-1,-3.2405037E-2,1.7037511E-1,-1.555284E-1,7.528682E-2],"categories":[],"categories_nodes":[],"categories_segments":[],"categories_sizes":[],"default_left":[0,0,0,0,0,0,0,0,0,0,0,0,0,0,0,0,0,0,0,0,0,0,0,0,0,0,0,0,0,0,0,0,0,0,0],"id":22,"left_children":[1,3,5,7,-1,9,11,13,-1,-1,-1,15,17,19,21,-1,23,-1,-1,25,27,29,31,-1,33,-1,-1,-1,-1,-1,-1,-1,-1,-1,-1],"loss_changes":[3.3043277E-1,6.349087E-1,7.204008E-1,4.8690066E-1,0E0,6.6767573E-1,6.578928E-1,4.2965108E-1,0E0,0E0,0E0,7.5244427E-1,3.6798185E-1,1.079718E0,6.0015917E-1,0E0,6.808423E-1,0E0,0E0,8.469496E-1,6.14507E-1,8.6647844E-1,1.3796546E0,0E0,7.4946606E-1,0E0,0E0,0E0,0E0,0E0,0E0,0E0,0E0,0E0,0E0],"parents":[2147483647,0,0,1,1,2,2,3,3,5,5,6,6,7,7,11,11,12,12,13,13,14,14,16,16,19,19,20,20,21,21,22,22,24,24],"right_children":[2,4,6,8,-1,10,12,14,-1,-1,-1,16,18,20,22,-1,24,-1,-1,26,28,30,32,-1,34,-1,-1,-1,-1,-1,-1,-1,-1,-1,-1],"split_conditions":[4.4673103E1,5.7E1,5.8036026E1,5.5E1,1.4410338E-1,-6.2405552E1,3.4E1,3E1,-1.23943195E-1,2.3988858E-2,-2.1162827E-1,6.1327797E1,7.0918144E1,-4.5388424E1,-2.4393318E1,2.1360011E-1,2.4E1,-1.662143E-1,1.4808307E-2,-7.841265E1,-1.736312E0,-5.7289806E1,-2.2989101E1,1.267295E-1,4.3E1,-1.14534255E-2,1.9891201E-1,-1.9128512E-1,-3.2007437E-2,9.43103E-2,-1.0546874E-1,-3.2405037E-2,1.7037511E-1,-1.555284E-1,7.528682E-2],"split_indices":[0,3,0,3,0,1,2,2,0,0,0,0,0,1,1,0,3,0,0,1,1,0,0,0,3,0,0,0,0,0,0,0,0,0,0],"split_type":[0,0,0,0,0,0,0,0,0,0,0,0,0,0,0,0,0,0,0,0,0,0,0,0,0,0,0,0,0,0,0,0,0,0,0],"sum_hessian":[5.0807953E1,3.832803E1,1.2479924E1,3.62913E1,2.0367284E0,3.6192954E0,8.860629E0,3.468498E1,1.6063229E0,1.3378403E0,2.281455E0,5.9832373E0,2.8773913E0,1.7712248E1,1.6972729E1,1.0639514E0,4.9192863E0,1.3825352E0,1.4948562E0,5.896293E0,1.1815955E1,6.194112E0,1.0778618E1,1.4201921E0,3.4990938E0,3.998758E0,1.8975351E0,2.0399666E0,9.775989E0,2.3032687E0,3.890843E0,4.8942337E0,5.8843837E0,2.1698854E0,1.3292085E0],"tree_param":{"num_deleted":"0","num_feature":"6","num_nodes":"35","size_leaf_vector":"1"}},{"base_weights":[-4.122421E-3,-4.9988043E-2,1.2947449E-1,-2.5893088E-2,-1.2682314E-1,2.0488125E-1,-1.3144872E-1,-5.7005376E-2,2.6913428E-1,2.7295304E-2,3.297944E-1,5.388177E-2,-1.0622842E-1,-7.1206624E-3,-2.6956025E-1,1.0469944E-1,9.04789E-3,2.2879319E-1,-8.379859E-2,9.74509E-2,2.003681E-1,-4.0189242E-1,5.0744742E-2,5.5662725E-2,-4.6262553E-1,-1.4856603E-2,1.4422993E-1,-6.970756E-2,3.1100944E-1,2.0956857E-2,-1.8020679E-1,1.7673427E-1,-6.691547E-4,8.900499E-3,-2.0200087E-1,1.7585702E-1,-1.6935555E-2],"categories":[],"categories_nodes":[],"categories_segments":[],"categories_sizes":[],"default_left":[0,0,0,0,0,0,0,0,0,0,0,0,0,0,0,0,0,0,0,0,0,0,0,0,0,0,0,0,0,0,0,0,0,0,0,0,0],"id":23,"left_children":[1,3,5,7,-1,9,11,13,15,17,19,-1,-1,21,23,-1,-1,25,-1,27,-1,29,31,-1,33,-1,-1,-1,35,-1,-1,-1,-1,-1,-1,-1,-1],"loss_changes":[3.1641674E-1,3.337335E-1,2.8676477E-1,3.5598943E-1,0E0,2.2693473E-1,3.1083944E-1,3.62796E-1,6.0378283E-2,4.0262327E-1,4.1832328E-1,0E0,0E0,6.80246E-1,6.579226E-1,0E0,0E0,2.943594E-1,0E0,4.1162527E-1,0E0,3.9879E-1,7.4514365E-1,0E0,5.238913E-1,0E0,0E0,0E0,3.7205097E-1,0E0,0E0,0E0,0E0,0E0,0E0,0E0,0E0],"parents":[2147483647,0,0,1,1,2,2,3,3,5,5,6,6,7,7,8,8,9,9,10,10,13,13,14,14,17,17,19,19,21,21,22,22,24,24,28,28],"right_children":[2,4,6,8,-1,10,12,14,16,18,20,-1,-1,22,24,-1,-1,26,-1,28,-1,30,32,-1,34,-1,-1,-1,36,-1,-1,-1,-1,-1,-1,-1,-1],"split_conditions":[5E0,1.656604E2,5.2131268E1,1.4549713E2,-1.2682314E-1,2.5E1,2.8E1,9.153539E1,1.5859146E2,6.921957E1,6.2106644E1,5.388177E-2,-1.0622842E-1,3E0,-6.695175E1,1.0469944E-1,9.04789E-3,-2.382573E1,-8.379859E-2,2.3E1,2.003681E-1,1.5E1,5E0,5.5662725E-2,1.5E1,-1.4856603E-2,1.4422993E-1,-6.970756E-2,-9.103264E1,2.0956857E-2,-1.8020679E-1,1.7673427E-1,-6.691547E-4,8.900499E-3,-2.0200087E-1,1.7585702E-1,-1.6935555E-2],"split_indices":[5,1,0,1,0,2,3,1,1,1,1,0,0,4,0,0,0,1,0,3,0,3,4,0,2,0,0,0,1,0,0,0,0,0,0,0,0],"split_type":[0,0,0,0,0,0,0,0,0,0,0,0,0,0,0,0,0,0,0,0,0,0,0,0,0,0,0,0,0,0,0,0,0,0,0,0,0],"sum_hessian":[4.9582508E1,3.7376484E1,1.2206022E1,3.6111687E1,1.2647978E0,9.636003E0,2.5700195E0,3.3396606E1,2.71508E0,4.482235E0,5.1537676E0,1.1527898E0,1.4172295E0,2.7885607E1,5.5110006E0,1.6899208E0,1.0251594E0,2.8579588E0,1.6242762E0,3.8181481E0,1.3356194E0,2.8048623E0,2.5080746E1,1.6531298E0,3.8578708E0,1.7397708E0,1.1181879E0,1.4660382E0,2.35211E0,1.0238508E0,1.7810116E0,1.3401997E0,2.3740545E1,1.4138415E0,2.4440293E0,1.0045727E0,1.3475373E0],"tree_param":{"num_deleted":"0","num_feature":"6","num_nodes":"37","size_leaf_vector":"1"}},{"base_weights":[-6.712467E-5,-2.8440395E-2,1.8520181E-1,-2.1147268E-1,6.094438E-3,4.015228E-1,-1.0790037E-1,7.460433E-3,-1.7279431E-1,1.5475944E-1,-2.2108773E-2,1.4608878E-1,2.721712E-2,-8.713862E-2,4.9249057E-2,-2.7531993E-1,1.2682495E-1,1.0486689E-1,-1.0829367E-1,-1.4694753E-1,1.17165735E-2,-1.5004209E-1,1.8828014E-1,-5.15832E-1,6.243783E-3,1.22460335E-1,-1.735294E-2,-2.2723016E-1,4.3302096E-2,1.0844859E-1,-2.4062546E-2],"categories":[],"categories_nodes":[],"categories_segments":[],"categories_sizes":[],"default_left":[0,0,0,0,0,0,0,0,0,0,0,0,0,0,0,0,0,0,0,0,0,0,0,0,0,0,0,0,0,0,0],"id":24,"left_children":[1,3,5,7,9,11,13,15,-1,-1,17,-1,-1,-1,-1,19,-1,21,23,-1,-1,-1,25,27,29,-1,-1,-1,-1,-1,-1],"loss_changes":[2.661986E-1,2.7885985E-1,4.6974385E-1,5.6278515E-1,5.565044E-1,6.419963E-2,2.2867839E-1,7.457838E-1,0E0,0E0,4.1500872E-1,0E0,0E0,0E0,0E0,2.749792E-1,0E0,8.7242466E-1,1.051802E0,0E0,0E0,0E0,7.965271E-1,8.972995E-1,5.978991E-1,0E0,0E0,0E0,0E0,0E0,0E0],"parents":[2147483647,0,0,1,1,2,2,3,3,4,4,5,5,6,6,7,7,10,10,15,15,17,17,18,18,22,22,23,23,24,24],"right_children":[2,4,6,8,10,12,14,16,-1,-1,18,-1,-1,-1,-1,20,-1,22,24,-1,-1,-1,26,28,30,-1,-1,-1,-1,-1,-1],"split_conditions":[6E0,-6.803312E1,4.50567E0,1.9E1,-6.65914E1,3.5361107E1,2.9E1,1.1E1,-1.7279431E-1,1.5475944E-1,2.4E1,1.4608878E-1,2.721712E-2,-8.713862E-2,4.9249057E-2,3E0,1.2682495E-1,-4.8123802E1,3E1,-1.4694753E-1,1.17165735E-2,-1.5004209E-1,2.0753645E1,5.5624256E1,3.4E1,1.22460335E-1,-1.735294E-2,-2.2723016E-1,4.3302096E-2,1.0844859E-1,-2.4062546E-2],"split_indices":[5,0,0,4,0,1,3,4,0,0,2,0,0,0,0,5,0,0,2,0,0,0,0,0,2,0,0,0,0,0,0],"split_type":[0,0,0,0,0,0,0,0,0,0,0,0,0,0,0,0,0,0,0,0,0,0,0,0,0,0,0,0,0,0,0],"sum_hessian":[4.8638012E1,4.2912594E1,5.725418E0,5.998339E0,3.6914253E1,3.0813518E0,2.6440663E0,4.359465E0,1.6388744E0,1.0287476E0,3.5885506E1,1.9723399E0,1.1090118E0,1.5418329E0,1.1022333E0,2.7940028E0,1.5654622E0,1.4421555E1,2.1463953E1,1.3290629E0,1.46494E0,1.1420661E0,1.3279489E1,3.9402936E0,1.7523659E1,6.665276E0,6.6142125E0,2.7767608E0,1.1635327E0,2.8071232E0,1.4716536E1],"tree_param":{"num_deleted":"0","num_feature":"6","num_nodes":"31","size_leaf_vector":"1"}},{"base_weights":[-1.7545156E-3,-4.004881E-2,1.12017095E-1,4.80166E-3,-2.1508381E-1,2.4643259E-1,-4.632544E-3,-3.6672823E-2,1.4443699E-1,1.02241546E-1,-3.677307E-1,-3.9022326E-2,4.5906457E-1,-1.6756305E-1,2.7130252E-1,-3.0521488E-1,1.4700639E-2,-1.3688475E-2,-5.3417975E-1,9.9885784E-2,-1.15904495E-1,1.9891162E-1,-2.6466628E-3,-1.1424666E-1,-1.9725782E-3,1.8866766E-2,1.03296086E-1,-4.840008E-2,-1.5910234E-1,2.2027019E-1,-1.0032081E-1,4.7804687E-2,-5.4528434E-2,-2.1575424E-1,-6.5405235E-2,-6.6358745E-2,5.0485995E-2,5.4150343E-2,-8.487095E-2,7.830867E-3,1.3221794E-1,-6.757881E-2,8.872164E-2],"categories":[],"categories_nodes":[],"categories_segments":[],"categories_sizes":[],"default_left":[0,0,0,0,0,0,0,0,0,0,0,0,0,0,0,0,0,0,0,0,0,0,0,0,0,0,0,0,0,0,0,0,0,0,0,0,0,0,0,0,0,0,0],"id":25,"left_children":[1,3,5,7,9,11,13,15,-1,-1,17,19,21,23,25,27,29,31,33,-1,-1,-1,-1,-1,35,-1,-1,37,-1,39,41,-1,-1,-1,-1,-1,-1,-1,-1,-1,-1,-1,-1],"loss_changes":[2.1644661E-1,2.9256207E-1,1.9736858E-1,6.2138504E-1,7.699198E-1,3.719641E-1,3.908189E-1,4.0489733E-1,0E0,0E0,3.722486E-1,5.694269E-1,3.3236802E-1,1.9164026E-1,2.7555943E-2,2.4645415E-1,6.2071764E-1,1.18714534E-1,9.792197E-2,0E0,0E0,0E0,0E0,0E0,1.8921055E-1,0E0,0E0,2.281509E-1,0E0,3.907026E-1,9.0394026E-1,0E0,0E0,0E0,0E0,0E0,0E0,0E0,0E0,0E0,0E0,0E0,0E0],"parents":[2147483647,0,0,1,1,2,2,3,3,4,4,5,5,6,6,7,7,10,10,11,11,12,12,13,13,14,14,15,15,16,16,17,17,18,18,24,24,27,27,29,29,30,30],"right_children":[2,4,6,8,10,12,14,16,-1,-1,18,20,22,24,26,28,30,32,34,-1,-1,-1,-1,-1,36,-1,-1,38,-1,40,42,-1,-1,-1,-1,-1,-1,-1,-1,-1,-1,-1,-1],"split_conditions":[5E0,4E0,2.8E1,8.099301E1,-7.61451E1,1.4E1,3.5E1,-6.803312E1,1.4443699E-1,1.02241546E-1,1.6E1,4.50567E0,4E1,3.5E1,-4.714091E1,2.6E1,-1.4617203E1,3.2E1,3E1,9.9885784E-2,-1.15904495E-1,1.9891162E-1,-2.6466628E-3,-1.1424666E-1,-4.026256E1,1.8866766E-2,1.03296086E-1,-7.802503E1,-1.5910234E-1,5.3867844E1,5E1,4.7804687E-2,-5.4528434E-2,-2.1575424E-1,-6.5405235E-2,-6.6358745E-2,5.0485995E-2,5.4150343E-2,-8.487095E-2,7.830867E-3,1.3221794E-1,-6.757881E-2,8.872164E-2],"split_indices":[5,5,3,0,0,3,2,0,0,0,2,0,2,3,1,2,0,3,2,0,0,0,0,0,0,0,0,0,0,1,2,0,0,0,0,0,0,0,0,0,0,0,0],"split_type":[0,0,0,0,0,0,0,0,0,0,0,0,0,0,0,0,0,0,0,0,0,0,0,0,0,0,0,0,0,0,0,0,0,0,0,0,0,0,0,0,0,0,0],"sum_hessian":[4.7650444E1,3.6135586E1,1.1514858E1,2.9539131E1,6.596456E0,4.833093E0,6.6817656E0,2.80238E1,1.515332E0,1.1555808E0,5.440875E0,2.4117875E0,2.4213057E0,4.4480715E0,2.2336943E0,3.7067227E0,2.4317076E1,2.0860405E0,3.3548346E0,1.1845528E0,1.2272348E0,1.3957424E0,1.0255631E0,1.3760779E0,3.0719934E0,1.0624497E0,1.1712445E0,2.2990506E0,1.4076723E0,8.39617E0,1.5920906E1,1.0534158E0,1.0326248E0,1.3122544E0,2.0425801E0,1.2121178E0,1.8598757E0,1.2799544E0,1.0190961E0,5.05892E0,3.3372502E0,1.2430722E1,3.4901843E0],"tree_param":{"num_deleted":"0","num_feature":"6","num_nodes":"43","size_leaf_vector":"1"}},{"base_weights":[5.9444905E-4,-8.053726E-2,6.501966E-2,-4.8319355E-1,-1.0034635E-2,1.869478E-1,-4.760993E-2,-1.8196028E-1,-3.5171945E-2,1.6228424E-1,-1.6059615E-1,3.0426562E-1,-1.5911663E-1,-2.613401E-1,1.0870448E-1,2.812619E-1,-1.0707234E-1,-3.1523716E-1,1.0351754E-1,-7.266038E-2,4.0261635E-1,-1.0772067E-1,1.4454678E-2,1.5892506E-1,-5.1443815E-1,2.1502204E-1,-5.7980318E-2,4.4350097E-1,-1.1996284E-1,-1.301074E-2,-5.6507015E-1,-1.0716718E-2,4.6955228E-1,1.1423496E-1,-3.6073074E-2,-1.9269563E-1,-5.4482188E-2,-2.525838E-1,2.2992706E-1,1.1230318E-2,1.6782139E-1,-1.12365216E-1,5.574897E-2,-5.6911524E-2,9.182541E-2,-1.9611059E-1,-5.120226E-2,2.0012932E-1,4.6206925E-2,-2.0179431E-1,2.1228198E-2,1.0644622E-1,-1.4640537E-2],"categories":[],"categories_nodes":[],"categories_segments":[],"categories_sizes":[],"default_left":[0,0,0,0,0,0,0,0,0,0,0,0,0,0,0,0,0,0,0,0,0,0,0,0,0,0,0,0,0,0,0,0,0,0,0,0,0,0,0,0,0,0,0,0,0,0,0,0,0,0,0,0,0],"id":26,"left_children":[1,3,5,7,9,11,13,-1,-1,15,17,19,21,23,25,27,-1,29,-1,-1,31,-1,-1,33,35,-1,37,39,41,43,45,-1,47,-1,-1,-1,-1,49,51,-1,-1,-1,-1,-1,-1,-1,-1,-1,-1,-1,-1,-1,-1],"loss_changes":[2.54119E-1,6.0612094E-1,3.8096923E-1,7.2680116E-2,5.2773255E-1,5.848447E-1,5.2556497E-1,0E0,0E0,6.880863E-1,9.5501745E-1,6.463065E-1,1.8317422E-1,7.8163266E-1,9.8422784E-1,5.934557E-1,0E0,6.5787476E-1,0E0,0E0,2.816943E-1,0E0,0E0,2.4628043E-1,6.818354E-2,0E0,5.189097E-1,2.6722288E-1,3.1691965E-1,3.4057614E-1,5.620575E-2,0E0,3.8990057E-1,0E0,0E0,0E0,0E0,7.789242E-1,1.5101898E-1,0E0,0E0,0E0,0E0,0E0,0E0,0E0,0E0,0E0,0E0,0E0,0E0,0E0,0E0],"parents":[2147483647,0,0,1,1,2,2,3,3,4,4,5,5,6,6,9,9,10,10,11,11,12,12,13,13,14,14,15,15,17,17,20,20,23,23,24,24,26,26,27,27,28,28,29,29,30,30,32,32,37,37,38,38],"right_children":[2,4,6,8,10,12,14,-1,-1,16,18,20,22,24,26,28,-1,30,-1,-1,32,-1,-1,34,36,-1,38,40,42,44,46,-1,48,-1,-1,-1,-1,50,52,-1,-1,-1,-1,-1,-1,-1,-1,-1,-1,-1,-1,-1,-1],"split_conditions":[1.1E1,1E0,1.7E1,3.4E1,-1.5544319E1,4.2E1,-1.3879616E1,-1.8196028E-1,-3.5171945E-2,5.1E1,5.2E1,-7.61451E1,1.9E1,2.1E1,1.726415E0,9.734667E1,-1.0707234E-1,2.4E1,1.0351754E-1,-7.266038E-2,-1.471658E2,-1.0772067E-1,1.4454678E-2,-9.586365E1,4E0,2.1502204E-1,4.1E1,2E0,-4.8123802E1,1.9E1,8.0431244E1,-1.0716718E-2,7.90204E-1,1.1423496E-1,-3.6073074E-2,-1.9269563E-1,-5.4482188E-2,1.9E1,4.319755E1,1.1230318E-2,1.6782139E-1,-1.12365216E-1,5.574897E-2,-5.6911524E-2,9.182541E-2,-1.9611059E-1,-5.120226E-2,2.0012932E-1,4.6206925E-2,-2.0179431E-1,2.1228198E-2,1.0644622E-1,-1.4640537E-2],"split_indices":[4,5,4,2,0,3,1,0,0,2,2,0,2,2,1,1,0,2,0,0,1,0,0,1,5,0,3,4,0,2,1,0,1,0,0,0,0,2,0,0,0,0,0,0,0,0,0,0,0,0,0,0,0],"split_type":[0,0,0,0,0,0,0,0,0,0,0,0,0,0,0,0,0,0,0,0,0,0,0,0,0,0,0,0,0,0,0,0,0,0,0,0,0,0,0,0,0,0,0,0,0,0,0,0,0,0,0,0,0],"sum_hessian":[4.661546E1,2.052186E1,2.60936E1,2.1856377E0,1.8336222E1,1.2212743E1,1.38808565E1,1.1429965E0,1.0426413E0,8.514009E0,9.822212E0,9.2109585E0,3.0017843E0,5.579739E0,8.301118E0,7.2995253E0,1.2144837E0,7.8102355E0,2.0119767E0,1.1818135E0,8.029145E0,1.1552981E0,1.8464863E0,2.2371197E0,3.3426194E0,1.0760201E0,7.2250977E0,5.1227317E0,2.1767938E0,4.010616E0,3.7996197E0,1.1254313E0,6.9037137E0,1.0436949E0,1.1934248E0,1.7430414E0,1.599578E0,4.384321E0,2.8407764E0,1.4312719E0,3.6914597E0,1.0651506E0,1.1116431E0,2.8422523E0,1.1683637E0,2.5655847E0,1.234035E0,3.5604079E0,3.343306E0,1.4370874E0,2.9472337E0,1.7732272E0,1.0675491E0],"tree_param":{"num_deleted":"0","num_feature":"6","num_nodes":"53","size_leaf_vector":"1"}},{"base_weights":[-6.7518023E-3,2.2133361E-1,-2.6888983E-2,2.6462516E-3,1.24303475E-1,-5.499041E-3,-1.2348111E-1,-1.225717E-1,7.868826E-2,-1.2351545E-2,-4.8298958E-1,-3.7987463E-2,1.6271886E-1,1.1505004E-1,-3.5666394E-1,-2.9841825E-2,-1.9039208E-1,1.3411994E-1,-3.188629E-1,3.038152E-1,-1.9945228E-1,-8.134494E-3,1.7388035E-1,-2.0276952E-1,8.9874165E-3,-8.176811E-2,1.1268078E-1,-1.56667E-1,5.721585E-3,1.333854E-1,-3.654185E-2,-1.6132669E-1,1.2012579E-1],"categories":[],"categories_nodes":[],"categories_segments":[],"categories_sizes":[],"default_left":[0,0,0,0,0,0,0,0,0,0,0,0,0,0,0,0,0,0,0,0,0,0,0,0,0,0,0,0,0,0,0,0,0],"id":27,"left_children":[1,3,5,-1,-1,7,-1,9,11,13,15,17,19,21,23,-1,-1,25,27,29,31,-1,-1,-1,-1,-1,-1,-1,-1,-1,-1,-1,-1],"loss_changes":[2.1894683E-1,1.551002E-1,3.5572806E-1,0E0,0E0,4.2582253E-1,0E0,7.112365E-1,2.5297242E-1,6.9253767E-1,1.8125468E-1,5.914069E-1,8.180256E-1,7.8161216E-1,5.454384E-1,0E0,0E0,8.6261153E-1,3.2664856E-1,7.171452E-1,1.1811612E0,0E0,0E0,0E0,0E0,0E0,0E0,0E0,0E0,0E0,0E0,0E0,0E0],"parents":[2147483647,0,0,1,1,2,2,5,5,7,7,8,8,9,9,10,10,11,11,12,12,13,13,14,14,17,17,18,18,19,19,20,20],"right_children":[2,4,6,-1,-1,8,-1,10,12,14,16,18,20,22,24,-1,-1,26,28,30,32,-1,-1,-1,-1,-1,-1,-1,-1,-1,-1,-1,-1],"split_conditions":[4E0,6.2106644E1,1.6755096E2,2.6462516E-3,1.24303475E-1,2.9E1,-1.2348111E-1,2.2E1,-1.3879616E1,4.016691E1,1.3E1,-6.0715076E1,4.2E1,2.555487E1,5.6957737E1,-2.9841825E-2,-1.9039208E-1,-1.1340741E1,3E1,1.9E1,1.4E1,-8.134494E-3,1.7388035E-1,-2.0276952E-1,8.9874165E-3,-8.176811E-2,1.1268078E-1,-1.56667E-1,5.721585E-3,1.333854E-1,-3.654185E-2,-1.6132669E-1,1.2012579E-1],"split_indices":[2,1,1,0,0,3,0,3,1,0,4,1,2,0,0,0,0,0,2,4,4,0,0,0,0,0,0,0,0,0,0,0,0],"split_type":[0,0,0,0,0,0,0,0,0,0,0,0,0,0,0,0,0,0,0,0,0,0,0,0,0,0,0,0,0,0,0,0,0],"sum_hessian":[4.5373943E1,2.8704355E0,4.250351E1,1.8639057E0,1.0065298E0,4.1225674E1,1.2778329E0,1.7054033E1,2.4171642E1,1.3852148E1,3.2018847E0,1.0349454E1,1.3822189E1,1.0596949E1,3.2551997E0,1.3765622E0,1.8253224E0,6.741233E0,3.608221E0,1.0062947E1,3.7592416E0,8.834873E0,1.7620747E0,1.3731623E0,1.8820375E0,2.4635978E0,4.277635E0,1.9121823E0,1.6960388E0,7.527942E0,2.5350053E0,2.4698787E0,1.2893628E0],"tree_param":{"num_deleted":"0","num_feature":"6","num_nodes":"33","size_leaf_vector":"1"}},{"base_weights":[-1.26701705E-2,-5.0270174E-2,9.9579655E-2,5.2723005E-2,-1.3643378E-1,1.1774199E-2,3.0011415E-1,-5.5824537E-2,4.2185375E-1,2.016183E-2,-4.4436675E-1,7.431097E-2,-9.073949E-2,1.358289E-1,1.6457394E-2,-2.3753971E-1,1.7238463E-1,4.2730004E-2,1.7087735E-1,-2.3787099E-1,1.5703723E-1,-7.59151E-2,-6.188552E-1,5.8022343E-2,-1.7668907E-1,1.4585112E-1,-4.422472E-1,3.8903385E-1,-1.846351E-1,-1.7311125E-1,7.697716E-2,1.5787232E-1,-8.538326E-3,4.4214316E-2,-7.90385E-2,-2.3687904E-1,-1.5425409E-2,-3.1914927E-2,-1.1161102E-1,-8.995827E-3,-2.134775E-1,2.2501296E-1,-4.2295165E-2,-1.05252154E-1,1.9339671E-2,1.1812773E-1,-5.4378E-2,7.119874E-2,-7.7537514E-2],"categories":[],"categories_nodes":[],"categories_segments":[],"categories_sizes":[],"default_left":[0,0,0,0,0,0,0,0,0,0,0,0,0,0,0,0,0,0,0,0,0,0,0,0,0,0,0,0,0,0,0,0,0,0,0,0,0,0,0,0,0,0,0,0,0,0,0,0,0],"id":28,"left_children":[1,3,5,7,9,11,13,15,17,19,21,-1,23,-1,-1,25,27,-1,-1,29,31,33,35,-1,37,-1,39,41,43,-1,-1,-1,45,-1,-1,-1,-1,47,-1,-1,-1,-1,-1,-1,-1,-1,-1,-1,-1],"loss_changes":[1.9646345E-1,3.146414E-1,2.0279342E-1,6.84777E-1,9.320235E-1,2.4475296E-1,1.0722411E-1,6.0640514E-1,7.850003E-2,5.193075E-1,3.7067878E-1,0E0,2.0851131E-1,0E0,0E0,1.4019209E0,5.8418304E-1,0E0,0E0,1.007944E0,5.8637667E-1,1.739971E-1,3.729838E-1,0E0,1.5790631E-1,0E0,7.302704E-1,9.5611525E-1,1.5426445E-1,0E0,0E0,0E0,5.963733E-1,0E0,0E0,0E0,0E0,3.3836773E-1,0E0,0E0,0E0,0E0,0E0,0E0,0E0,0E0,0E0,0E0,0E0],"parents":[2147483647,0,0,1,1,2,2,3,3,4,4,5,5,6,6,7,7,8,8,9,9,10,10,12,12,15,15,16,16,19,19,20,20,21,21,22,22,24,24,26,26,27,27,28,28,32,32,37,37],"right_children":[2,4,6,8,10,12,14,16,18,20,22,-1,24,-1,-1,26,28,-1,-1,30,32,34,36,-1,38,-1,40,42,44,-1,-1,-1,46,-1,-1,-1,-1,48,-1,-1,-1,-1,-1,-1,-1,-1,-1,-1,-1],"split_conditions":[5E0,1.726415E0,1.0239151E2,5.1E1,4.2E1,-1.2225596E2,1.3653185E2,-6.254859E1,3.1E1,6.97256E1,2E0,7.431097E-2,3E0,1.358289E-1,1.6457394E-2,9E0,3E0,4.2730004E-2,1.7087735E-1,2.2E1,8.5503006E1,1.3E1,1.3281993E2,5.8022343E-2,4.2E1,1.4585112E-1,2.2E1,3.6E1,1.5E1,-1.7311125E-1,7.697716E-2,1.5787232E-1,-6.695175E1,4.4214316E-2,-7.90385E-2,-2.3687904E-1,-1.5425409E-2,-1.9313154E1,-1.1161102E-1,-8.995827E-3,-2.134775E-1,2.2501296E-1,-4.2295165E-2,-1.05252154E-1,1.9339671E-2,1.1812773E-1,-5.4378E-2,7.119874E-2,-7.7537514E-2],"split_indices":[5,1,1,2,2,1,1,1,3,1,5,0,4,0,0,3,5,0,0,2,1,3,1,0,2,0,2,3,4,0,0,0,0,0,0,0,0,1,0,0,0,0,0,0,0,0,0,0,0],"split_type":[0,0,0,0,0,0,0,0,0,0,0,0,0,0,0,0,0,0,0,0,0,0,0,0,0,0,0,0,0,0,0,0,0,0,0,0,0,0,0,0,0,0,0,0,0,0,0,0,0],"sum_hessian":[4.4362705E1,3.364492E1,1.0717785E1,1.5502528E1,1.8142393E1,8.190312E0,2.5274727E0,1.263563E1,2.8668983E0,1.2645965E1,5.4964285E0,2.0518377E0,6.138475E0,1.0363564E0,1.4911163E0,7.011626E0,5.624004E0,1.6708553E0,1.1960431E0,4.1273537E0,8.518611E0,2.227625E0,3.2688036E0,1.1352196E0,5.0032554E0,1.2428347E0,5.768791E0,3.4442623E0,2.1797419E0,2.3490596E0,1.7782942E0,1.9630679E0,6.5555434E0,1.1146575E0,1.1129675E0,2.2117693E0,1.0570343E0,3.5417802E0,1.4614749E0,2.7187605E0,3.0500305E0,1.8018472E0,1.642415E0,1.0624341E0,1.1173078E0,1.5847245E0,4.9708185E0,1.5966144E0,1.9451659E0],"tree_param":{"num_deleted":"0","num_feature":"6","num_nodes":"49","size_leaf_vector":"1"}},{"base_weights":[-5.382799E-3,-8.6482115E-2,5.8734436E-2,-1.43644E-1,-1.5322728E-2,4.7191978E-4,2.800586E-1,-2.555893E-1,6.4344876E-2,5.047509E-2,-1.2127325E-1,3.9896274E-1,-1.9005897E-2,6.08153E-2,-1.6629833E-1,-1.3153796E-1,2.4083875E-1,-1.8975155E-2,1.562989E-1,2.7128102E-2,1.9150385E-1,7.647751E-2,-4.6473727E-2,8.8891976E-2,-2.757999E-1,1.5499733E-1,1.2139008E-1,6.9607854E-2,-1.3737188E-1,1.6282313E-2,-1.0819433E-1,-6.6432156E-2,6.7345686E-2,2.4061655E-3,1.2836395E-1],"categories":[],"categories_nodes":[],"categories_segments":[],"categories_sizes":[],"default_left":[0,0,0,0,0,0,0,0,0,0,0,0,0,0,0,0,0,0,0,0,0,0,0,0,0,0,0,0,0,0,0,0,0,0,0],"id":29,"left_children":[1,3,5,-1,7,9,11,13,15,17,-1,19,-1,21,-1,23,25,27,-1,-1,-1,-1,-1,-1,29,-1,31,33,-1,-1,-1,-1,-1,-1,-1],"loss_changes":[2.3298848E-1,5.44228E-1,3.2318476E-1,0E0,3.5632953E-1,4.423468E-1,2.3855773E-1,4.7065818E-1,5.203123E-1,6.453452E-1,0E0,2.3895949E-1,0E0,1.7123355E-1,0E0,5.3510815E-1,1.9386998E-1,7.2824436E-1,0E0,0E0,0E0,0E0,0E0,0E0,1.8792719E-1,0E0,2.8798878E-1,3.445428E-1,0E0,0E0,0E0,0E0,0E0,0E0,0E0],"parents":[2147483647,0,0,1,1,2,2,4,4,5,5,6,6,7,7,8,8,9,9,11,11,13,13,15,15,16,16,17,17,24,24,26,26,27,27],"right_children":[2,4,6,-1,8,10,12,14,16,18,-1,20,-1,22,-1,24,26,28,-1,-1,-1,-1,-1,-1,30,-1,32,34,-1,-1,-1,-1,-1,-1,-1],"split_conditions":[1.1E1,1E0,1.1366951E2,-1.43644E-1,1.2E1,9.529889E1,1.6100949E2,3.4E1,2.9E1,6.520243E1,-1.2127325E-1,-1.0907102E1,-1.9005897E-2,-5.7150784E1,-1.6629833E-1,2E0,3.4E1,3.871615E1,1.562989E-1,2.7128102E-2,1.9150385E-1,7.647751E-2,-4.6473727E-2,8.8891976E-2,1.6E1,1.5499733E-1,-6.501154E1,2.339437E1,-1.3737188E-1,1.6282313E-2,-1.0819433E-1,-6.6432156E-2,6.7345686E-2,2.4061655E-3,1.2836395E-1],"split_indices":[4,5,1,0,3,1,1,2,2,1,0,0,0,1,0,5,2,1,0,0,0,0,0,0,3,0,0,1,0,0,0,0,0,0,0],"split_type":[0,0,0,0,0,0,0,0,0,0,0,0,0,0,0,0,0,0,0,0,0,0,0,0,0,0,0,0,0,0,0,0,0,0,0],"sum_hessian":[4.2829803E1,1.8756565E1,2.4073238E1,2.000152E0,1.6756413E1,1.9849964E1,4.223275E0,3.622687E0,1.3133725E1,1.8446196E1,1.4037676E0,3.0169218E0,1.2063533E0,2.1461008E0,1.4765865E0,6.3456655E0,6.7880597E0,1.6909918E1,1.5362788E0,1.9200122E0,1.0969095E0,1.0340102E0,1.1120906E0,1.3343555E0,5.01131E0,1.0464189E0,5.7416406E0,1.4770433E1,2.1394842E0,1.0984526E0,3.9128573E0,1.0620426E0,4.6795983E0,1.3476241E1,1.2941924E0],"tree_param":{"num_deleted":"0","num_feature":"6","num_nodes":"35","size_leaf_vector":"1"}},{"base_weights":[-1.8300515E-3,2.068801E-1,-2.081678E-2,6.300366E-4,1.0977014E-1,-2.1551932E-1,1.5950104E-2,-1.4754736E-1,3.2801084E-2,-2.2383776E-2,3.9620176E-1,2.983436E-1,-9.852426E-2,1.2021411E-2,-3.2430187E-1,2.3234189E-2,1.5770788E-1,1.2463855E-1,9.586399E-3,1.0050096E-1,-2.4789298E-2,-1.6267088E-1,2.8054921E-2,-1.357411E-1,5.866945E-3],"categories":[],"categories_nodes":[],"categories_segments":[],"categories_sizes":[],"default_left":[0,0,0,0,0,0,0,0,0,0,0,0,0,0,0,0,0,0,0,0,0,0,0,0,0],"id":30,"left_children":[1,3,5,-1,-1,7,9,-1,11,13,15,17,-1,19,21,-1,-1,-1,-1,-1,23,-1,-1,-1,-1],"loss_changes":[1.7452759E-1,1.1885011E-1,2.9180232E-1,0E0,0E0,4.5987436E-1,5.16348E-1,0E0,5.1461595E-1,3.4225276E-1,9.3094885E-2,8.1174165E-2,0E0,3.6741927E-1,3.573789E-1,0E0,0E0,0E0,0E0,0E0,5.4076374E-1,0E0,0E0,0E0,0E0],"parents":[2147483647,0,0,1,1,2,2,5,5,6,6,8,8,9,9,10,10,11,11,13,13,14,14,20,20],"right_children":[2,4,6,-1,-1,8,10,-1,12,14,16,18,-1,20,22,-1,-1,-1,-1,-1,24,-1,-1,-1,-1],"split_conditions":[4E0,8.23805E-1,1.3E1,6.300366E-4,1.0977014E-1,3E0,2.2E1,-1.4754736E-1,8.043972E1,2E1,-2.4393318E1,1.1E1,-9.852426E-2,1.7E1,1.7005507E1,2.3234189E-2,1.5770788E-1,1.2463855E-1,9.586399E-3,1.0050096E-1,1.9E1,-1.6267088E-1,2.8054921E-2,-1.357411E-1,5.866945E-3],"split_indices":[2,1,2,0,0,5,4,0,1,4,1,4,0,2,1,0,0,0,0,0,2,0,0,0,0],"split_type":[0,0,0,0,0,0,0,0,0,0,0,0,0,0,0,0,0,0,0,0,0,0,0,0,0],"sum_hessian":[4.1955566E1,2.6733158E0,3.928225E1,1.6114117E0,1.0619041E0,5.4673896E0,3.381486E1,2.1237247E0,3.343665E0,3.1573057E1,2.2418046E0,2.0273454E0,1.3163197E0,2.9205156E1,2.3679008E0,1.1092855E0,1.132519E0,1.0195105E0,1.0078349E0,2.159217E0,2.7045938E1,1.3604887E0,1.0074123E0,1.676279E0,2.536966E1],"tree_param":{"num_deleted":"0","num_feature":"6","num_nodes":"25","size_leaf_vector":"1"}},{"base_weights":[-1.2526857E-3,-1.4640011E-1,2.64751E-2,1.434731E-1,-3.585071E-1,1.028644E-1,-1.5188641E-3,-4.20864E-2,1.073766E-1,-5.1948154E-1,1.6093522E-2,-2.5332117E-1,3.1449683E-2,-4.2414755E-2,-1.909423E-1,-1.3024063E-1,2.1073746E-2,2.2016305E-1,-2.8054383E-2,-8.147259E-2,3.414696E-1,1.7340603E-1,-1.2262585E-1,1.3749598E-1,-3.8912144E-2,-5.6187797E-2,9.7732194E-2,-1.8617602E-1,-1.4238707E-2],"categories":[],"categories_nodes":[],"categories_segments":[],"categories_sizes":[],"default_left":[0,0,0,0,0,0,0,0,0,0,0,0,0,0,0,0,0,0,0,0,0,0,0,0,0,0,0,0,0],"id":31,"left_children":[1,3,5,7,9,-1,11,-1,-1,13,-1,15,17,-1,-1,-1,-1,19,21,-1,23,25,27,-1,-1,-1,-1,-1,-1],"loss_changes":[1.7467886E-1,4.7937226E-1,3.2363614E-1,2.7263397E-1,3.1348664E-1,0E0,2.9445246E-1,0E0,0E0,5.1098347E-2,0E0,2.707036E-1,3.5882035E-1,0E0,0E0,0E0,0E0,5.485524E-1,4.9305397E-1,0E0,4.2130214E-1,5.185497E-1,6.2321246E-1,0E0,0E0,0E0,0E0,0E0,0E0],"parents":[2147483647,0,0,1,1,2,2,3,3,4,4,6,6,9,9,11,11,12,12,17,17,18,18,20,20,21,21,22,22],"right_children":[2,4,6,8,10,-1,12,-1,-1,14,-1,16,18,-1,-1,-1,-1,20,22,-1,24,26,28,-1,-1,-1,-1,-1,-1],"split_conditions":[-6.803312E1,-8.1342964E1,-6.271483E1,4E0,7.438675E1,1.028644E-1,-4.6460003E1,-4.20864E-2,1.073766E-1,-7.6770584E1,1.6093522E-2,3.7241493E1,-1.4617203E1,-4.2414755E-2,-1.909423E-1,-1.3024063E-1,2.1073746E-2,2E0,2E0,-8.147259E-2,4.9E1,1.9E1,-1.0057012E1,1.3749598E-1,-3.8912144E-2,-5.6187797E-2,9.7732194E-2,-1.8617602E-1,-1.4238707E-2],"split_indices":[0,0,0,5,1,0,0,0,0,0,0,1,0,0,0,0,0,5,5,0,2,2,0,0,0,0,0,0,0],"split_type":[0,0,0,0,0,0,0,0,0,0,0,0,0,0,0,0,0,0,0,0,0,0,0,0,0,0,0,0,0],"sum_hessian":[4.143955E1,5.9601064E0,3.5479443E1,2.6551127E0,3.3049936E0,1.9695777E0,3.3509865E1,1.291718E0,1.3633947E0,2.1894476E0,1.1155459E0,3.1057212E0,3.0404144E1,1.0392511E0,1.1501966E0,1.7731436E0,1.3325776E0,6.6414E0,2.3762745E1,1.0690514E0,5.5723486E0,7.3250318E0,1.6437712E1,4.4868984E0,1.0854503E0,2.10728E0,5.217752E0,1.204089E0,1.5233623E1],"tree_param":{"num_deleted":"0","num_feature":"6","num_nodes":"29","size_leaf_vector":"1"}},{"base_weights":[-8.574296E-3,-4.7145147E-2,1.0309101E-1,5.0824586E-2,-1.3029477E-1,-1.2422792E-2,2.4804872E-1,-2.8283771E-2,1.2628733E-1,1.4376034E-2,-4.067651E-1,9.149338E-2,-1.4113814E-1,5.0748892E-2,1.228105E-1,4.9720574E-2,-1.09582745E-1,-2.1959214E-1,1.7136084E-1,-9.305205E-2,-5.570349E-1,9.67241E-2,-1.2027793E-1,-4.251958E-2,6.515356E-2,-7.6656386E-2,1.359294E-1,-1.5090257E-1,1.0372846E-1,3.0549422E-1,-6.3801594E-2,3.8735308E-2,-8.2707584E-2,-2.1207508E-1,-2.2379598E-2,-1.9515999E-2,7.742299E-2,9.3553975E-2,-1.631946E-2,-5.415384E-2,9.028829E-2,1.23106934E-1,-3.0422388E-2],"categories":[],"categories_nodes":[],"categories_segments":[],"categories_sizes":[],"default_left":[0,0,0,0,0,0,0,0,0,0,0,0,0,0,0,0,0,0,0,0,0,0,0,0,0,0,0,0,0,0,0,0,0,0,0,0,0,0,0,0,0,0,0],"id":32,"left_children":[1,3,5,7,9,11,13,15,-1,17,19,-1,21,23,-1,25,-1,27,29,31,33,35,-1,-1,-1,-1,37,-1,39,41,-1,-1,-1,-1,-1,-1,-1,-1,-1,-1,-1,-1,-1],"loss_changes":[1.8497217E-1,2.6541042E-1,1.8810925E-1,4.6000987E-1,7.0437545E-1,3.3318537E-1,1.3671589E-1,3.74241E-1,0E0,4.9420923E-1,2.3259693E-1,0E0,3.9325464E-1,1.386528E-1,0E0,3.4734857E-1,0E0,5.497384E-1,4.7711587E-1,1.6360214E-1,2.2774279E-1,1.15986645E-1,0E0,0E0,0E0,0E0,3.4898382E-1,0E0,2.4299785E-1,3.1214547E-1,0E0,0E0,0E0,0E0,0E0,0E0,0E0,0E0,0E0,0E0,0E0,0E0,0E0],"parents":[2147483647,0,0,1,1,2,2,3,3,4,4,5,5,6,6,7,7,9,9,10,10,12,12,13,13,15,15,17,17,18,18,19,19,20,20,21,21,26,26,28,28,29,29],"right_children":[2,4,6,8,10,12,14,16,-1,18,20,-1,22,24,-1,26,-1,28,30,32,34,36,-1,-1,-1,-1,38,-1,40,42,-1,-1,-1,-1,-1,-1,-1,-1,-1,-1,-1,-1,-1],"split_conditions":[5E0,1.726415E0,1.3972683E1,-1.3839309E1,4.2E1,1.4E1,3.3E1,-2.6101566E1,1.2628733E-1,3.4E1,2E0,9.149338E-2,-8.417951E1,-2.2236593E1,1.228105E-1,7E0,-1.09582745E-1,7.438675E1,4E0,1.3E1,1.3281993E2,3.3E1,-1.2027793E-1,-4.251958E-2,6.515356E-2,-7.6656386E-2,1.4251546E1,-1.5090257E-1,3E0,1.302273E2,-6.3801594E-2,3.8735308E-2,-8.2707584E-2,-2.1207508E-1,-2.2379598E-2,-1.9515999E-2,7.742299E-2,9.3553975E-2,-1.631946E-2,-5.415384E-2,9.028829E-2,1.23106934E-1,-3.0422388E-2],"split_indices":[5,1,1,1,2,2,2,1,0,3,5,0,1,0,0,4,0,1,5,3,1,3,0,0,0,0,0,0,5,1,0,0,0,0,0,0,0,0,0,0,0,0,0],"split_type":[0,0,0,0,0,0,0,0,0,0,0,0,0,0,0,0,0,0,0,0,0,0,0,0,0,0,0,0,0,0,0,0,0,0,0,0,0,0,0,0,0,0,0],"sum_hessian":[4.0818165E1,3.076818E1,1.0049986E1,1.430376E1,1.6464422E1,6.101849E0,3.9481368E0,1.2545913E1,1.7578462E0,1.1430891E1,5.0335307E0,1.3654271E0,4.7364216E0,2.3673573E0,1.5807796E0,1.087996E1,1.6659527E0,4.429865E0,7.001026E0,2.1546261E0,2.8789046E0,2.8002203E0,1.9362016E0,1.1665754E0,1.2007817E0,1.9635582E0,8.916402E0,2.0644507E0,2.3654141E0,5.3402987E0,1.6607273E0,1.1043286E0,1.0502975E0,1.841489E0,1.0374155E0,1.6962891E0,1.1039312E0,4.301818E0,4.614584E0,1.0037022E0,1.361712E0,4.239304E0,1.1009945E0],"tree_param":{"num_deleted":"0","num_feature":"6","num_nodes":"43","size_leaf_vector":"1"}},{"base_weights":[-1.1256927E-2,1.9615385E-1,-3.0188587E-2,-1.0094524E-2,9.133631E-2,-6.3764215E-2,1.2596716E-1,-3.4554545E-2,-1.3508298E-1,3.957005E-1,-9.5111325E-2,-1.4714696E-1,4.712703E-2,1.520941E-1,3.7865005E-2,6.333829E-2,-2.3549613E-1,-5.1555294E-3,-4.3476546E-1,-1.078512E-1,1.6622019E-1,-1.02754384E-1,-8.383475E-3,3.891306E-2,-1.1929714E-1,-1.7409813E-1,-6.377198E-2,4.836424E-2,-8.252954E-2,1.3367392E-1,2.6217094E-2],"categories":[],"categories_nodes":[],"categories_segments":[],"categories_sizes":[],"default_left":[0,0,0,0,0,0,0,0,0,0,0,0,0,0,0,0,0,0,0,0,0,0,0,0,0,0,0,0,0,0,0],"id":33,"left_children":[1,3,5,-1,-1,7,9,11,-1,13,15,17,19,-1,-1,-1,21,23,25,27,29,-1,-1,-1,-1,-1,-1,-1,-1,-1,-1],"loss_changes":[1.6622387E-1,9.854585E-2,2.0871635E-1,0E0,0E0,3.476004E-1,4.6159813E-1,2.9193902E-1,0E0,3.785628E-2,2.5235575E-1,5.39782E-1,3.6339658E-1,0E0,0E0,0E0,7.2714254E-2,5.755042E-1,1.8123806E-2,4.3765107E-1,2.0281118E-1,0E0,0E0,0E0,0E0,0E0,0E0,0E0,0E0,0E0,0E0],"parents":[2147483647,0,0,1,1,2,2,5,5,6,6,7,7,9,9,10,10,11,11,12,12,16,16,17,17,18,18,19,19,20,20],"right_children":[2,4,6,-1,-1,8,10,12,-1,14,16,18,20,-1,-1,-1,22,24,26,28,30,-1,-1,-1,-1,-1,-1,-1,-1,-1,-1],"split_conditions":[4E0,-4.324432E1,5.2E1,-1.0094524E-2,9.133631E-2,1.656604E2,-3.8484818E1,2.9E1,-1.3508298E-1,-9.8919464E1,9E0,3.2042908E1,-1.3879616E1,1.520941E-1,3.7865005E-2,6.333829E-2,3E0,1.8E1,5.6957737E1,2.1E1,1.2096917E1,-1.02754384E-1,-8.383475E-3,3.891306E-2,-1.1929714E-1,-1.7409813E-1,-6.377198E-2,4.836424E-2,-8.252954E-2,1.3367392E-1,2.6217094E-2],"split_indices":[2,0,2,0,0,1,1,3,0,1,3,0,1,0,0,0,5,3,0,2,1,0,0,0,0,0,0,0,0,0,0],"split_type":[0,0,0,0,0,0,0,0,0,0,0,0,0,0,0,0,0,0,0,0,0,0,0,0,0,0,0,0,0,0,0],"sum_hessian":[3.9824387E1,2.5479956E0,3.727639E1,1.0369666E0,1.511029E0,3.116677E1,6.10962E0,2.9989773E1,1.1769984E0,2.3962004E0,3.7134197E0,1.2272083E1,1.771769E1,1.0721635E0,1.3240371E0,1.0088243E0,2.7045953E0,8.897495E0,3.374588E0,7.739945E0,9.977744E0,1.3554345E0,1.3491607E0,7.120412E0,1.7770834E0,1.065039E0,2.3095489E0,2.9807017E0,4.759243E0,1.1719899E0,8.805755E0],"tree_param":{"num_deleted":"0","num_feature":"6","num_nodes":"31","size_leaf_vector":"1"}},{"base_weights":[-1.1157091E-2,-5.076153E-2,1.0222737E-1,-1.7450427E-1,1.4146219E-2,2.4035749E-1,-4.6651863E-2,-3.1252664E-1,-1.265461E-3,2.5823516E-1,-5.3826734E-2,-9.796506E-3,3.3593065E-1,-1.9263221E-1,7.554758E-2,-4.0818685E-1,2.2187933E-2,6.595353E-2,-1.755588E-1,-8.209406E-3,1.3738556E-1,5.284806E-2,-2.2865225E-1,1.3474151E-1,1.4662589E-1,4.092364E-2,-1.3162886E-1,-1.6921496E-1,-1.9238146E-1,3.515336E-2,-1.0927519E-1,-3.770698E-2,1.45451E-1,-3.8891834E-1,4.092292E-2,7.8679055E-2,-1.0930756E-2,1.9181993E-2,-8.759767E-2,3.960827E-2,-7.4896574E-2,-1.474915E-1,-2.0303985E-3],"categories":[],"categories_nodes":[],"categories_segments":[],"categories_sizes":[],"default_left":[0,0,0,0,0,0,0,0,0,0,0,0,0,0,0,0,0,0,0,0,0,0,0,0,0,0,0,0,0,0,0,0,0,0,0,0,0,0,0,0,0,0,0],"id":34,"left_children":[1,3,5,7,9,11,13,15,17,19,21,-1,23,25,-1,27,-1,-1,29,-1,-1,31,33,-1,35,-1,-1,37,-1,-1,-1,39,-1,41,-1,-1,-1,-1,-1,-1,-1,-1,-1],"loss_changes":[1.8586953E-1,2.4734527E-1,2.3223662E-1,2.522189E-1,3.6104795E-1,1.606808E-1,3.103783E-1,2.4743384E-1,2.578325E-1,2.8232524E-1,3.3273047E-1,0E0,2.712199E-2,4.3261236E-1,0E0,1.6239226E-1,0E0,0E0,2.4911422E-1,0E0,0E0,4.677626E-1,4.4523475E-1,0E0,7.535419E-2,0E0,0E0,1.2630215E-1,0E0,0E0,0E0,4.0806484E-1,0E0,1.8971992E-1,0E0,0E0,0E0,0E0,0E0,0E0,0E0,0E0,0E0],"parents":[2147483647,0,0,1,1,2,2,3,3,4,4,5,5,6,6,7,7,8,8,9,9,10,10,12,12,13,13,15,15,18,18,21,21,22,22,24,24,27,27,31,31,33,33],"right_children":[2,4,6,8,10,12,14,16,18,20,22,-1,24,26,-1,28,-1,-1,30,-1,-1,32,34,-1,36,-1,-1,38,-1,-1,-1,40,-1,42,-1,-1,-1,-1,-1,-1,-1,-1,-1],"split_conditions":[5E0,-3.656353E1,-2.044226E0,3E0,-1.1305189E1,-6.924924E1,1.3972683E1,5.2E1,-7.383381E1,3.7E1,3.871615E1,-9.796506E-3,2.7E1,-8.631599E1,7.554758E-2,2E0,2.2187933E-2,6.595353E-2,-6.27954E-1,-8.209406E-3,1.3738556E-1,2.8323147E1,4.9E1,1.3474151E-1,8.7855354E1,4.092364E-2,-1.3162886E-1,1.3E1,-1.9238146E-1,3.515336E-2,-1.0927519E-1,3E0,1.45451E-1,1.4549713E2,4.092292E-2,7.8679055E-2,-1.0930756E-2,1.9181993E-2,-8.759767E-2,3.960827E-2,-7.4896574E-2,-1.474915E-1,-2.0303985E-3],"split_indices":[5,0,0,5,0,0,1,3,0,3,1,0,3,1,0,5,0,0,1,0,0,1,3,0,1,0,0,3,0,0,0,5,0,1,0,0,0,0,0,0,0,0,0],"split_type":[0,0,0,0,0,0,0,0,0,0,0,0,0,0,0,0,0,0,0,0,0,0,0,0,0,0,0,0,0,0,0,0,0,0,0,0,0,0,0,0,0,0,0],"sum_hessian":[3.9235874E1,2.9488161E1,9.747712E0,9.56485E0,1.9923311E1,4.7376633E0,5.010049E0,4.8760185E0,4.688832E0,3.7299786E0,1.6193333E1,1.3991637E0,3.3384995E0,3.6026616E0,1.4073871E0,3.8635852E0,1.0124333E0,1.9516256E0,2.7372062E0,1.8900882E0,1.8398905E0,1.0490167E1,5.703166E0,1.2302313E0,2.1082683E0,1.7324185E0,1.8702431E0,2.7599277E0,1.1036574E0,1.2213701E0,1.5158361E0,9.426799E0,1.0633675E0,3.9178424E0,1.7853235E0,1.026924E0,1.0813444E0,1.1173298E0,1.6425979E0,5.444087E0,3.982712E0,2.8620372E0,1.0558051E0],"tree_param":{"num_deleted":"0","num_feature":"6","num_nodes":"43","size_leaf_vector":"1"}},{"base_weights":[-6.9939527E-3,-7.600497E-2,4.7458507E-2,-1.3218045E-1,-9.773469E-3,1.0173037E-1,6.3880146E-3,-7.5393565E-2,2.0521444E-1,-3.325897E-1,7.460397E-2,1.4003304E-1,-2.041345E-1,1.4156926E-1,-6.657836E-2,-2.087301E-1,4.7895994E-2,1.3947695E-1,-2.3346145E-1,-1.3832688E-1,1.2053354E-1,-1.4106421E-1,-5.17487E-3,4.3304753E-1,3.763473E-5,3.643685E-2,-1.2673289E-1,4.888868E-2,-1.2149627E-1,1.07632495E-1,-6.0149267E-2,2.157424E-2,2.1371047E-1,-9.373531E-2,1.8389743E-2],"categories":[],"categories_nodes":[],"categories_segments":[],"categories_sizes":[],"default_left":[0,0,0,0,0,0,0,0,0,0,0,0,0,0,0,0,0,0,0,0,0,0,0,0,0,0,0,0,0,0,0,0,0,0,0],"id":35,"left_children":[1,3,5,-1,7,-1,9,11,13,15,17,19,21,-1,-1,-1,-1,23,25,27,-1,-1,29,31,33,-1,-1,-1,-1,-1,-1,-1,-1,-1,-1],"loss_changes":[1.5179488E-1,4.2495993E-1,2.692279E-1,0E0,2.421305E-1,0E0,5.07639E-1,3.9025855E-1,5.633156E-1,7.691765E-1,3.96271E-1,4.5420405E-1,4.51228E-1,0E0,0E0,0E0,0E0,6.4099896E-1,2.8872746E-1,3.387851E-1,0E0,0E0,4.923673E-1,4.5742333E-1,2.4153724E-1,0E0,0E0,0E0,0E0,0E0,0E0,0E0,0E0,0E0,0E0],"parents":[2147483647,0,0,1,1,2,2,4,4,6,6,7,7,8,8,9,9,10,10,11,11,12,12,17,17,18,18,19,19,22,22,23,23,24,24],"right_children":[2,4,6,-1,8,-1,10,12,14,16,18,20,22,-1,-1,-1,-1,24,26,28,-1,-1,30,32,34,-1,-1,-1,-1,-1,-1,-1,-1,-1,-1],"split_conditions":[1.1E1,1E0,4E0,-1.3218045E-1,4.9E1,1.0173037E-1,1.3E1,-4.5388424E1,-1.1128978E1,4.3E1,4.9E1,-8.317151E1,5.554532E1,1.4156926E-1,-6.657836E-2,-2.087301E-1,4.7895994E-2,2.4E1,3E0,1.2865145E1,1.2053354E-1,-1.4106421E-1,3E0,1.9E1,-7.61451E1,3.643685E-2,-1.2673289E-1,4.888868E-2,-1.2149627E-1,1.07632495E-1,-6.0149267E-2,2.157424E-2,2.1371047E-1,-9.373531E-2,1.8389743E-2],"split_indices":[4,5,2,0,3,0,2,1,0,3,3,1,1,0,0,0,0,2,5,0,0,0,4,2,0,0,0,0,0,0,0,0,0,0,0],"split_type":[0,0,0,0,0,0,0,0,0,0,0,0,0,0,0,0,0,0,0,0,0,0,0,0,0,0,0,0,0,0,0,0,0,0,0],"sum_hessian":[3.8434513E1,1.6776632E1,2.165788E1,1.710129E0,1.5066504E1,1.7777146E0,1.9880167E1,1.2040677E1,3.0258265E0,2.681208E0,1.719896E1,4.471183E0,7.5694947E0,1.7982959E0,1.2275306E0,1.3049512E0,1.3762567E0,1.4659238E1,2.5397208E0,2.3953295E0,2.075853E0,2.6551943E0,4.9143004E0,4.0425544E0,1.0616684E1,1.006594E0,1.5331268E0,1.3072256E0,1.0881038E0,1.4240322E0,3.4902682E0,2.311491E0,1.7310634E0,